{"learner":{"attributes":{"scikit_learn":"{\"_estimator_type\": \"classifier\"}"},"feature_names":[],"feature_types":[],"gradient_booster":{"model":{"cats":{"enc":[],"feature_segments":[],"sorted_idx":[]},"gbtree_model_param":{"num_parallel_tree":"1","num_trees":"1050"},"iteration_indptr":[0,3,6,9,12,15,18,21,24,27,30,33,36,39,42,45,48,51,54,57,60,63,66,69,72,75,78,81,84,87,90,93,96,99,102,105,108,111,114,117,120,123,126,129,132,135,138,141,144,147,150,153,156,159,162,165,168,171,174,177,180,183,186,189,192,195,198,201,204,207,210,213,216,219,222,225,228,231,234,237,240,243,246,249,252,255,258,261,264,267,270,273,276,279,282,285,288,291,294,297,300,303,306,309,312,315,318,321,324,327,330,333,336,339,342,345,348,351,354,357,360,363,366,369,372,375,378,381,384,387,390,393,396,399,402,405,408,411,414,417,420,423,426,429,432,435,438,441,444,447,450,453,456,459,462,465,468,471,474,477,480,483,486,489,492,495,498,501,504,507,510,513,516,519,522,525,528,531,534,537,540,543,546,549,552,555,558,561,564,567,570,573,576,579,582,585,588,591,594,597,600,603,606,609,612,615,618,621,624,627,630,633,636,639,642,645,648,651,654,657,660,663,666,669,672,675,678,681,684,687,690,693,696,699,702,705,708,711,714,717,720,723,726,729,732,735,738,741,744,747,750,753,756,759,762,765,768,771,774,777,780,783,786,789,792,795,798,801,804,807,810,813,816,819,822,825,828,831,834,837,840,843,846,849,852,855,858,861,864,867,870,873,876,879,882,885,888,891,894,897,900,903,906,909,912,915,918,921,924,927,930,933,936,939,942,945,948,951,954,957,960,963,966,969,972,975,978,981,984,987,990,993,996,999,1002,1005,1008,1011,1014,1017,1020,1023,1026,1029,1032,1035,1038,1041,1044,1047,1050],"tree_info":[0,1,2,0,1,2,0,1,2,0,1,2,0,1,2,0,1,2,0,1,2,0,1,2,0,1,2,0,1,2,0,1,2,0,1,2,0,1,2,0,1,2,0,1,2,0,1,2,0,1,2,0,1,2,0,1,2,0,1,2,0,1,2,0,1,2,0,1,2,0,1,2,0,1,2,0,1,2,0,1,2,0,1,2,0,1,2,0,1,2,0,1,2,0,1,2,0,1,2,0,1,2,0,1,2,0,1,2,0,1,2,0,1,2,0,1,2,0,1,2,0,1,2,0,1,2,0,1,2,0,1,2,0,1,2,0,1,2,0,1,2,0,1,2,0,1,2,0,1,2,0,1,2,0,1,2,0,1,2,0,1,2,0,1,2,0,1,2,0,1,2,0,1,2,0,1,2,0,1,2,0,1,2,0,1,2,0,1,2,0,1,2,0,1,2,0,1,2,0,1,2,0,1,2,0,1,2,0,1,2,0,1,2,0,1,2,0,1,2,0,1,2,0,1,2,0,1,2,0,1,2,0,1,2,0,1,2,0,1,2,0,1,2,0,1,2,0,1,2,0,1,2,0,1,2,0,1,2,0,1,2,0,1,2,0,1,2,0,1,2,0,1,2,0,1,2,0,1,2,0,1,2,0,1,2,0,1,2,0,1,2,0,1,2,0,1,2,0,1,2,0,1,2,0,1,2,0,1,2,0,1,2,0,1,2,0,1,2,0,1,2,0,1,2,0,1,2,0,1,2,0,1,2,0,1,2,0,1,2,0,1,2,0,1,2,0,1,2,0,1,2,0,1,2,0,1,2,0,1,2,0,1,2,0,1,2,0,1,2,0,1,2,0,1,2,0,1,2,0,1,2,0,1,2,0,1,2,0,1,2,0,1,2,0,1,2,0,1,2,0,1,2,0,1,2,0,1,2,0,1,2,0,1,2,0,1,2,0,1,2,0,1,2,0,1,2,0,1,2,0,1,2,0,1,2,0,1,2,0,1,2,0,1,2,0,1,2,0,1,2,0,1,2,0,1,2,0,1,2,0,1,2,0,1,2,0,1,2,0,1,2,0,1,2,0,1,2,0,1,2,0,1,2,0,1,2,0,1,2,0,1,2,0,1,2,0,1,2,0,1,2,0,1,2,0,1,2,0,1,2,0,1,2,0,1,2,0,1,2,0,1,2,0,1,2,0,1,2,0,1,2,0,1,2,0,1,2,0,1,2,0,1,2,0,1,2,0,1,2,0,1,2,0,1,2,0,1,2,0,1,2,0,1,2,0,1,2,0,1,2,0,1,2,0,1,2,0,1,2,0,1,2,0,1,2,0,1,2,0,1,2,0,1,2,0,1,2,0,1,2,0,1,2,0,1,2,0,1,2,0,1,2,0,1,2,0,1,2,0,1,2,0,1,2,0,1,2,0,1,2,0,1,2,0,1,2,0,1,2,0,1,2,0,1,2,0,1,2,0,1,2,0,1,2,0,1,2,0,1,2,0,1,2,0,1,2,0,1,2,0,1,2,0,1,2,0,1,2,0,1,2,0,1,2,0,1,2,0,1,2,0,1,2,0,1,2,0,1,2,0,1,2,0,1,2,0,1,2,0,1,2,0,1,2,0,1,2,0,1,2,0,1,2,0,1,2,0,1,2,0,1,2,0,1,2,0,1,2,0,1,2,0,1,2,0,1,2,0,1,2,0,1,2,0,1,2,0,1,2,0,1,2,0,1,2,0,1,2,0,1,2,0,1,2,0,1,2,0,1,2,0,1,2,0,1,2,0,1,2,0,1,2,0,1,2,0,1,2,0,1,2,0,1,2,0,1,2,0,1,2,0,1,2,0,1,2,0,1,2,0,1,2,0,1,2,0,1,2,0,1,2,0,1,2,0,1,2,0,1,2,0,1,2,0,1,2,0,1,2,0,1,2,0,1,2,0,1,2,0,1,2,0,1,2,0,1,2,0,1,2,0,1,2,0,1,2,0,1,2,0,1,2,0,1,2,0,1,2,0,1,2,0,1,2,0,1,2,0,1,2,0,1,2,0,1,2,0,1,2,0,1,2,0,1,2,0,1,2,0,1,2,0,1,2,0,1,2,0,1,2,0,1,2,0,1,2,0,1,2,0,1,2,0,1,2,0,1,2,0,1,2,0,1,2,0,1,2,0,1,2,0,1,2,0,1,2,0,1,2,0,1,2,0,1,2,0,1,2,0,1,2,0,1,2,0,1,2,0,1,2,0,1,2,0,1,2,0,1,2,0,1,2,0,1,2,0,1,2,0,1,2,0,1,2,0,1,2,0,1,2,0,1,2,0,1,2,0,1,2,0,1,2,0,1,2,0,1,2,0,1,2,0,1,2,0,1,2,0,1,2],"trees":[{"base_weights":[1.5856067E-3,7.314169E-1,-9.4616765E-1,9.10727E-1,-7.657525E-1,-3.4181726E-1,-9.775974E-1,9.674071E-1,-7.095229E-1,3.238104E-1,-9.3543214E-1,6.272736E-1,-4.68571E-2,-4.740732E-1,-9.8944E-1,9.877172E-1,-4.3333247E-1,3.1111187E-1,-4.68571E-2,4.2142898E-2,-5.333326E-1,-2.5454468E-1,-4.906775E-2,4.4210568E-2,-2.7999971E-2,5.333341E-1,-4.449996E-2,-4.95742E-2,-7.9999715E-3,4.9816962E-2,-3.6363248E-3,2.0000035E-2,-4.153842E-2,3.428575E-2,-2.2499977E-2,-0E0,-3.428568E-2,2.800003E-2,-3.6249965E-2,3.428575E-2,-0E0],"categories":[],"categories_nodes":[],"categories_segments":[],"categories_sizes":[],"default_left":[0,0,0,0,0,0,0,0,0,0,0,0,0,0,0,0,0,0,0,0,0,0,0,0,0,0,0,0,0,0,0,0,0,0,0,0,0,0,0,0,0],"id":0,"left_children":[1,3,5,7,9,11,13,15,17,19,21,23,-1,25,27,29,31,33,-1,-1,35,37,-1,-1,-1,39,-1,-1,-1,-1,-1,-1,-1,-1,-1,-1,-1,-1,-1,-1,-1],"loss_changes":[8.3001886E2,1.8272617E2,9.449097E0,5.6364777E1,1.3860062E1,1.6484234E1,2.339264E0,1.7154663E1,5.232793E0,5.1519046E0,1.6121483E0,3.8831873E0,0E0,6.1669264E0,5.4507446E-1,5.449585E0,3.3561535E0,1.6151593E0,0E0,0E0,3.6571467E-1,2.530136E0,0E0,0E0,0E0,3.6571407E-1,0E0,0E0,0E0,0E0,0E0,0E0,0E0,0E0,0E0,0E0,0E0,0E0,0E0,0E0,0E0],"parents":[2147483647,0,0,1,1,2,2,3,3,4,4,5,5,6,6,7,7,8,8,9,9,10,10,11,11,13,13,14,14,15,15,16,16,17,17,20,20,21,21,25,25],"right_children":[2,4,6,8,10,12,14,16,18,20,22,24,-1,26,28,30,32,34,-1,-1,36,38,-1,-1,-1,40,-1,-1,-1,-1,-1,-1,-1,-1,-1,-1,-1,-1,-1,-1,-1],"split_conditions":[5.7808046E0,9.632665E0,1.017767E2,6.6294685E1,2.3536797E0,3.3217758E-1,6.049756E0,5.6312007E-1,3.3185706E-1,1.0824834E1,1.1219294E2,1.7913689E1,-4.68571E-2,5.0175316E1,3.984436E3,1.772167E2,1.9336712E1,5.984967E-2,-4.68571E-2,4.2142898E-2,1.3058998E2,3.7994322E-1,-4.906775E-2,4.4210568E-2,-2.7999971E-2,1.6230238E1,-4.449996E-2,-4.95742E-2,-7.9999715E-3,4.9816962E-2,-3.6363248E-3,2.0000035E-2,-4.153842E-2,3.428575E-2,-2.2499977E-2,-0E0,-3.428568E-2,2.800003E-2,-3.6249965E-2,3.428575E-2,-0E0],"split_indices":[17,16,12,4,7,15,17,19,13,16,12,1,0,4,8,12,1,6,0,0,0,13,0,0,0,1,0,0,0,0,0,0,0,0,0,0,0,0,0,0,0],"split_type":[0,0,0,0,0,0,0,0,0,0,0,0,0,0,0,0,0,0,0,0,0,0,0,0,0,0,0,0,0,0,0,0,0,0,0,0,0,0,0,0,0],"sum_hessian":[1.198E3,6.77E2,5.21E2,6.05E2,7.2E1,2.65E1,4.945E2,5.85E2,2E1,9.5E0,6.25E1,1E1,1.65E1,1.25E1,4.82E2,5.77E2,8E0,3.5E0,1.65E1,6E0,3.5E0,4.5E0,5.8E1,8.5E0,1.5E0,3.5E0,9E0,4.805E2,1.5E0,5.725E2,4.5E0,2.5E0,5.5E0,2.5E0,1E0,1E0,2.5E0,1.5E0,3E0,2.5E0,1E0],"tree_param":{"num_deleted":"0","num_feature":"23","num_nodes":"41","size_leaf_vector":"1"}},{"base_weights":[-6.3018226E-3,-4.7759706E-1,4.9249083E-1,-6.6428524E-1,9.6328676E-1,9.2857504E-1,-5.4272693E-1,-6.837287E-1,5.6730747E-2,1.0909745E0,-2.7884623E-2,1.1086637E0,-4.8954633E-1,-6.294009E-1,6.965941E-2,-6.990998E-1,5.160548E-2,1.2794051E0,-2.2020748E-1,1.2684741E0,-1.705205E-1,-6.376023E-1,5.8238614E-2,-6.7174023E-1,5.8238614E-2,-3.5287276E-2,2.2580631E-2,8.761667E-3,7.38386E-2,2.2580631E-2,-2.846976E-2,6.8190634E-2,-2.2880225E-2,-2.8975273E-2,7.123285E-2,1.305969E-2,-3.455169E-2,2.0920373E-3,-3.4655336E-2],"categories":[],"categories_nodes":[],"categories_segments":[],"categories_sizes":[],"default_left":[0,0,0,0,0,0,0,0,0,0,0,0,0,0,0,0,0,0,0,0,0,0,0,0,0,0,0,0,0,0,0,0,0,0,0,0,0,0,0],"id":1,"left_children":[1,3,5,7,9,11,13,15,-1,17,-1,19,21,23,-1,25,-1,27,29,31,33,35,-1,37,-1,-1,-1,-1,-1,-1,-1,-1,-1,-1,-1,-1,-1,-1,-1],"loss_changes":[2.3525595E2,1.3905148E2,2.1998865E2,1.6689926E1,1.2193962E1,8.806464E1,2.5070148E1,1.2611557E1,0E0,1.4020813E1,0E0,6.2520996E1,1.0296173E1,1.1305798E1,0E0,3.7756348E0,0E0,1.0136757E1,2.0799694E0,4.52518E1,2.331425E1,1.9859581E0,0E0,2.177742E0,0E0,0E0,0E0,0E0,0E0,0E0,0E0,0E0,0E0,0E0,0E0,0E0,0E0,0E0,0E0],"parents":[2147483647,0,0,1,1,2,2,3,3,4,4,5,5,6,6,7,7,9,9,11,11,12,12,13,13,15,15,17,17,18,18,19,19,20,20,21,21,23,23],"right_children":[2,4,6,8,10,12,14,16,-1,18,-1,20,22,24,-1,26,-1,28,30,32,34,36,-1,38,-1,-1,-1,-1,-1,-1,-1,-1,-1,-1,-1,-1,-1,-1,-1],"split_conditions":[7.6659946E0,5.941403E0,2.5327951E2,8.587235E-1,2.7146774E1,1.4366883E1,5.7248486E1,1.0925625E-1,5.6730747E-2,2.311757E0,-2.7884623E-2,2.3743979E1,1.5549743E1,1.5873348E1,6.965941E-2,6.015463E-1,5.160548E-2,1.017767E2,1E1,2.9431756E0,7.5032157E-1,8.225206E1,5.8238614E-2,2.4025412E0,5.8238614E-2,-3.5287276E-2,2.2580631E-2,8.761667E-3,7.38386E-2,2.2580631E-2,-2.846976E-2,6.8190634E-2,-2.2880225E-2,-2.8975273E-2,7.123285E-2,1.305969E-2,-3.455169E-2,2.0920373E-3,-3.4655336E-2],"split_indices":[16,17,12,15,9,17,5,6,0,15,0,9,9,9,0,13,0,12,20,15,15,3,0,10,0,0,0,0,0,0,0,0,0,0,0,0,0,0,0],"split_type":[0,0,0,0,0,0,0,0,0,0,0,0,0,0,0,0,0,0,0,0,0,0,0,0,0,0,0,0,0,0,0,0,0,0,0,0,0,0,0],"sum_hessian":[9.9876025E2,5.1366016E2,4.8510013E2,4.5528012E2,5.8380016E1,3.4146008E2,1.4364003E2,4.510801E2,4.2000012E0,5.4180016E1,4.2000012E0,3.0324008E2,3.822001E1,1.3818004E2,5.4600015E0,4.4772012E2,3.3600008E0,4.746001E1,6.7200017E0,2.6964008E2,3.360001E1,3.570001E1,2.5200007E0,1.3566003E2,2.5200007E0,4.4562012E2,2.1000006E0,7.560002E0,3.990001E1,2.1000006E0,4.6200013E0,2.5578006E2,1.3860003E1,2.7300007E1,6.3000016E0,1.6800004E0,3.4020008E1,3.780001E0,1.3188004E2],"tree_param":{"num_deleted":"0","num_feature":"23","num_nodes":"39","size_leaf_vector":"1"}},{"base_weights":[-1.4324466E-2,-4.8394048E-1,1.8349714E0,-5.771624E-1,1.382027E0,2.1844842E0,7.1427286E-2,-5.976867E-1,9.814033E-2,2.0674005E0,-6.80944E-2,2.2777731E0,-3.1021962E-1,-4.8568556E-1,1.4303453E0,-6.080519E-1,8.047933E-2,2.2526839E0,-1.53509E-2,-2.7073754E-2,7.499989E-2,1.0185161E0,2.3888056E0,-2.2619069E-2,2.192946E-3,-2.9266974E-2,2.4122752E-2,-1.53509E-2,1.8195233E0,-3.0835977E-2,3.452372E-2,3.653839E-2,1.17352724E-1,7.06161E-4,1.0258603E-1,2.4122752E-2,1.2026931E-1,1.01277195E-1,2.4122752E-2],"categories":[],"categories_nodes":[],"categories_segments":[],"categories_sizes":[],"default_left":[0,0,0,0,0,0,0,0,0,0,0,0,0,0,0,0,0,0,0,0,0,0,0,0,0,0,0,0,0,0,0,0,0,0,0,0,0,0,0],"id":2,"left_children":[1,3,5,7,9,11,13,15,-1,17,19,21,23,25,27,29,-1,31,-1,-1,-1,33,35,-1,-1,-1,-1,-1,37,-1,-1,-1,-1,-1,-1,-1,-1,-1,-1],"loss_changes":[6.616512E2,1.0642958E2,9.4713745E1,3.1249863E1,2.9322128E1,3.0850952E1,2.0927273E1,1.4050369E1,0E0,9.632217E0,8.3472595E0,1.4591736E1,3.3653718E-1,2.1798215E0,6.146078E0,6.8766937E0,0E0,6.484833E-1,0E0,0E0,0E0,1.2092845E1,2.1325684E0,0E0,0E0,0E0,0E0,0E0,6.3410187E-1,0E0,0E0,0E0,0E0,0E0,0E0,0E0,0E0,0E0,0E0],"parents":[2147483647,0,0,1,1,2,2,3,3,4,4,5,5,6,6,7,7,9,9,10,10,11,11,12,12,13,13,14,14,15,15,17,17,21,21,22,22,28,28],"right_children":[2,4,6,8,10,12,14,16,-1,18,20,22,24,26,28,30,-1,32,-1,-1,-1,34,36,-1,-1,-1,-1,-1,38,-1,-1,-1,-1,-1,-1,-1,-1,-1,-1],"split_conditions":[2.2662613E2,8.394E0,1.3081671E1,1.6461285E1,4.4397736E1,5.7248486E1,7.68193E-1,4.858592E1,9.814033E-2,1.3248171E1,6.5033394E-1,4.83258E0,2.5806328E1,7.072155E-1,2.1264214E1,7.766378E-1,8.047933E-2,3.1759174E2,-1.53509E-2,-2.7073754E-2,7.499989E-2,2.9247805E1,3.4051087E-1,-2.2619069E-2,2.192946E-3,-2.9266974E-2,2.4122752E-2,-1.53509E-2,1.5549743E1,-3.0835977E-2,3.452372E-2,3.653839E-2,1.17352724E-1,7.06161E-4,1.0258603E-1,2.4122752E-2,1.2026931E-1,1.01277195E-1,2.4122752E-2],"split_indices":[12,7,9,17,5,5,19,1,0,9,13,7,1,13,1,13,0,11,0,0,0,1,13,0,0,0,0,0,9,0,0,0,0,0,0,0,0,0,0],"split_type":[0,0,0,0,0,0,0,0,0,0,0,0,0,0,0,0,0,0,0,0,0,0,0,0,0,0,0,0,0,0,0,0,0,0,0,0,0,0,0],"sum_hessian":[7.600011E2,6.067209E2,1.5328023E2,5.7856085E2,2.8160042E1,1.2768019E2,2.5600037E1,5.747208E2,3.8400056E0,1.8880028E1,9.280014E0,1.2320018E2,4.4800067E0,1.8560028E1,7.0400105E0,5.7280084E2,1.9200028E0,1.7600025E1,1.2800019E0,7.6800113E0,1.6000023E0,1.0880016E1,1.1232017E2,3.2000046E0,1.2800019E0,1.7280025E1,1.2800019E0,1.2800019E0,5.7600083E0,5.696008E2,3.2000046E0,1.6000023E0,1.6000023E1,6.080009E0,4.800007E0,1.2800019E0,1.1104016E2,4.4800067E0,1.2800019E0],"tree_param":{"num_deleted":"0","num_feature":"23","num_nodes":"39","size_leaf_vector":"1"}},{"base_weights":[5.3904084E-3,6.814921E-1,-9.084107E-1,8.702442E-1,-7.8004885E-1,-9.250169E-1,5.151546E-1,9.237108E-1,-6.845108E-1,4.4218284E-1,-8.9558023E-1,-3.6458808E-1,-9.452188E-1,-7.8658825E-3,3.841451E-2,9.4307244E-1,-3.6039382E-1,3.051548E-1,-4.528289E-2,3.973108E-2,-2.7027998E-2,7.980364E-3,-9.21185E-1,3.926313E-2,-7.6881874E-1,-6.561148E-1,-4.785887E-2,4.764571E-2,-2.605526E-2,3.283939E-2,-4.1567575E-2,3.0893246E-2,-7.614528E-3,-4.798138E-3,-4.7403056E-2,7.7446634E-3,-4.451722E-2,1.3675812E-2,-4.5128822E-2],"categories":[],"categories_nodes":[],"categories_segments":[],"categories_sizes":[],"default_left":[0,0,0,0,0,0,0,0,0,0,0,0,0,0,0,0,0,0,0,0,0,0,0,0,0,0,0,0,0,0,0,0,0,0,0,0,0,0,0],"id":3,"left_children":[1,3,5,7,9,11,13,15,17,19,21,23,25,-1,-1,27,29,31,-1,-1,-1,-1,33,-1,35,37,-1,-1,-1,-1,-1,-1,-1,-1,-1,-1,-1,-1,-1],"loss_changes":[7.4634015E2,1.922486E2,1.2660492E1,5.1821503E1,1.172197E1,5.27771E0,1.2877094E0,1.5204407E1,4.9270535E0,3.050521E0,2.2061272E0,9.656842E0,9.036255E-1,0E0,0E0,8.998962E0,5.1109786E0,7.8384495E-1,0E0,0E0,0E0,0E0,1.3991547E0,0E0,1.8933992E0,5.5708694E0,0E0,0E0,0E0,0E0,0E0,0E0,0E0,0E0,0E0,0E0,0E0,0E0,0E0],"parents":[2147483647,0,0,1,1,2,2,3,3,4,4,5,5,6,6,7,7,8,8,9,9,10,10,11,11,12,12,15,15,16,16,17,17,22,22,24,24,25,25],"right_children":[2,4,6,8,10,12,14,16,18,20,22,24,26,-1,-1,28,30,32,-1,-1,-1,-1,34,-1,36,38,-1,-1,-1,-1,-1,-1,-1,-1,-1,-1,-1,-1,-1],"split_conditions":[5.8790364E0,9.632665E0,2.7146774E1,6.6294685E1,1.00038376E2,9.289241E1,2.110258E3,1.8243711E0,1.0512302E0,6.6950005E1,7.2551975E0,4.0254204E1,4.4496303E0,-7.8658825E-3,3.841451E-2,1.0925625E-1,2.1050897E0,7.096589E1,-4.528289E-2,3.973108E-2,-2.7027998E-2,7.980364E-3,2.7981415E-1,3.926313E-2,3.3294243E-1,4.8276577E1,-4.785887E-2,4.764571E-2,-2.605526E-2,3.283939E-2,-4.1567575E-2,3.0893246E-2,-7.614528E-3,-4.798138E-3,-4.7403056E-2,7.7446634E-3,-4.451722E-2,1.3675812E-2,-4.5128822E-2],"split_indices":[17,16,9,4,12,12,8,18,18,4,1,4,16,0,0,6,10,4,0,0,0,0,13,0,19,4,0,0,0,0,0,0,0,0,0,0,0,0,0],"split_type":[0,0,0,0,0,0,0,0,0,0,0,0,0,0,0,0,0,0,0,0,0,0,0,0,0,0,0,0,0,0,0,0,0,0,0,0,0,0,0],"sum_hessian":[1.2060519E3,6.9339075E2,5.126612E2,6.145032E2,7.888759E1,5.0716544E2,5.4957304E0,5.945281E2,1.997508E1,6.493933E0,7.2393654E1,1.8480782E1,4.8868466E2,1.4984565E0,3.997274E0,5.8603534E2,8.492757E0,3.496346E0,1.6478735E1,4.9955654E0,1.4983677E0,1.4985485E0,7.08951E1,4.4974904E0,1.3983292E1,2.1962343E1,4.6672232E2,5.825372E2,3.4981506E0,2.495666E0,5.9970903E0,1.9982558E0,1.4980903E0,2.4976256E0,6.8397484E1,1.4981867E0,1.2485105E1,4.494391E0,1.7467953E1],"tree_param":{"num_deleted":"0","num_feature":"23","num_nodes":"39","size_leaf_vector":"1"}},{"base_weights":[1.9510193E-2,-4.501645E-1,4.9793205E-1,-6.0463375E-1,1.0507137E0,8.9976305E-1,-4.7519994E-1,-6.500398E-1,1.2400677E0,1.2352508E0,-4.166645E-1,1.0301441E0,-5.1983154E-1,5.3739154E-1,-6.773489E-1,-6.7572016E-1,6.4037256E-2,1.2024483E-2,6.905707E-2,1.327526E0,-0E0,-0E0,-2.7266694E-2,1.1365511E0,-3.431716E-1,-6.430369E-1,5.530144E-1,1.1123201E0,-5.228351E-1,-1.6157568E-1,-3.504775E-2,-3.4330714E-2,5.1792156E-2,-7.1195164E-3,7.083053E-2,-1.9870555E-2,2.1036027E-2,6.194929E-2,-8.089834E-3,-3.313501E-2,4.5291968E-2,-3.38498E-2,-0E0,-0E0,4.1742403E-2,6.5836646E-2,-2.0407708E-2,-0E0,-3.075845E-2,3.0678147E-2,-2.7755126E-2],"categories":[],"categories_nodes":[],"categories_segments":[],"categories_sizes":[],"default_left":[0,0,0,0,0,0,0,0,0,0,0,0,0,0,0,0,0,0,0,0,0,0,0,0,0,0,0,0,0,0,0,0,0,0,0,0,0,0,0,0,0,0,0,0,0,0,0,0,0,0,0],"id":4,"left_children":[1,3,5,7,9,11,13,15,17,19,21,23,25,27,29,31,-1,-1,-1,33,35,-1,-1,37,39,41,43,45,47,49,-1,-1,-1,-1,-1,-1,-1,-1,-1,-1,-1,-1,-1,-1,-1,-1,-1,-1,-1,-1,-1],"loss_changes":[2.2790286E2,1.192242E2,1.9697186E2,3.966649E1,1.3609112E1,6.6492065E1,3.0558498E1,2.3325546E1,1.1207619E0,5.0149384E0,3.7222993E-1,4.8184387E1,4.403063E0,1.5886421E1,1.303299E0,9.047256E0,0E0,0E0,0E0,5.5768356E0,8.2133937E-1,0E0,0E0,4.065146E1,1.0226433E1,6.736193E-1,5.1031244E-1,5.7871037E0,5.097182E-1,2.4355154E0,0E0,0E0,0E0,0E0,0E0,0E0,0E0,0E0,0E0,0E0,0E0,0E0,0E0,0E0,0E0,0E0,0E0,0E0,0E0,0E0,0E0],"parents":[2147483647,0,0,1,1,2,2,3,3,4,4,5,5,6,6,7,7,8,8,9,9,10,10,11,11,12,12,13,13,14,14,15,15,19,19,20,20,23,23,24,24,25,25,26,26,27,27,28,28,29,29],"right_children":[2,4,6,8,10,12,14,16,18,20,22,24,26,28,30,32,-1,-1,-1,34,36,-1,-1,38,40,42,44,46,48,50,-1,-1,-1,-1,-1,-1,-1,-1,-1,-1,-1,-1,-1,-1,-1,-1,-1,-1,-1,-1,-1],"split_conditions":[7.755604E0,4.403453E0,2.2091618E0,1.8627657E2,1.6076894E-1,2.789985E2,1.9660147E2,1.9737004E0,1E0,2.4056604E1,2.0917076E1,2.5828611E1,5.4956715E1,1.834825E1,4.403453E0,8.9334357E-1,6.4037256E-2,1.2024483E-2,6.905707E-2,6.563219E0,1.4237695E2,-0E0,-2.7266694E-2,2.276679E1,1.0824834E1,2.1409354E0,2.3592744E3,3.5978081E0,1.6378543E0,1.5463309E1,-3.504775E-2,-3.4330714E-2,5.1792156E-2,-7.1195164E-3,7.083053E-2,-1.9870555E-2,2.1036027E-2,6.194929E-2,-8.089834E-3,-3.313501E-2,4.5291968E-2,-3.38498E-2,-0E0,-0E0,4.1742403E-2,6.5836646E-2,-2.0407708E-2,-0E0,-3.075845E-2,3.0678147E-2,-2.7755126E-2],"split_indices":[16,7,15,12,6,12,12,18,21,9,14,9,5,16,7,15,0,0,0,9,3,0,0,16,16,15,8,15,18,14,0,0,0,0,0,0,0,0,0,0,0,0,0,0,0,0,0,0,0,0,0],"split_type":[0,0,0,0,0,0,0,0,0,0,0,0,0,0,0,0,0,0,0,0,0,0,0,0,0,0,0,0,0,0,0,0,0,0,0,0,0,0,0,0,0,0,0,0,0,0,0,0,0,0,0],"sum_hessian":[1.0122232E3,5.1070532E2,5.0151785E2,4.6365054E2,4.7054794E1,3.5507608E2,1.464418E2,4.5319724E2,1.0453305E1,4.199931E1,5.0554852E0,3.255235E2,2.9552565E1,2.4011564E1,1.2243023E2,4.4794122E2,5.2560205E0,1.7150264E0,8.738278E0,3.9075016E1,2.9242926E0,1.2687633E0,3.7867217E0,3.0234265E2,2.3180845E1,2.6951317E1,2.601249E0,1.5598278E1,8.413286E0,5.8869185E0,1.1654331E2,4.457612E2,2.1800094E0,2.1344926E0,3.6940525E1,1.6370379E0,1.2872546E0,2.803471E2,2.1995552E1,1.8896202E1,4.2846437E0,2.5687244E1,1.2640712E0,1.2888665E0,1.3123825E0,1.3925853E1,1.6724257E0,1.2667923E0,7.1464934E0,1.7084653E0,4.178453E0],"tree_param":{"num_deleted":"0","num_feature":"23","num_nodes":"51","size_leaf_vector":"1"}},{"base_weights":[-2.2712758E-2,-4.3320492E-1,1.8405459E0,-5.3852326E-1,1.6284857E0,2.024341E0,-3.8596433E-1,-5.7883114E-1,1.768344E0,1.9429257E0,-2.3651268E-2,2.0756817E0,1.4389022E-1,-2.7653683E-2,3.140318E-2,-6.0176086E-1,5.877977E-1,1.9338811E-3,9.968038E-2,-1.5101723E-2,2.0669577E0,1.092338E0,1.0661226E-1,-2.0849379E-2,5.441913E-2,-3.0594647E-2,4.3812454E-2,-2.4582038E-2,6.569299E-2,6.1649308E-3,1.0686114E-1,-1.1967913E-3,9.177493E-2],"categories":[],"categories_nodes":[],"categories_segments":[],"categories_sizes":[],"default_left":[0,0,0,0,0,0,0,0,0,0,0,0,0,0,0,0,0,0,0,0,0,0,0,0,0,0,0,0,0,0,0,0,0],"id":5,"left_children":[1,3,5,7,9,11,13,15,17,19,-1,21,23,-1,-1,25,27,-1,-1,-1,29,31,-1,-1,-1,-1,-1,-1,-1,-1,-1,-1,-1],"loss_changes":[5.929363E2,1.3873976E2,5.8214844E1,5.719197E1,2.160659E1,1.1979614E1,2.2834873E0,1.6291443E1,3.8495293E0,8.395691E0,0E0,4.3516846E0,2.940509E0,0E0,0E0,9.267807E0,1.0058723E1,0E0,0E0,0E0,3.063675E0,7.687228E0,0E0,0E0,0E0,0E0,0E0,0E0,0E0,0E0,0E0,0E0,0E0],"parents":[2147483647,0,0,1,1,2,2,3,3,4,4,5,5,6,6,7,7,8,8,9,9,11,11,12,12,15,15,16,16,20,20,21,21],"right_children":[2,4,6,8,10,12,14,16,18,20,-1,22,24,-1,-1,26,28,-1,-1,-1,30,32,-1,-1,-1,-1,-1,-1,-1,-1,-1,-1,-1],"split_conditions":[2.0948958E0,1.406633E1,1.4361625E1,1.19706276E2,1.5549743E1,5.5231358E1,7.623776E-1,3.968487E1,4.403453E0,2.318751E0,-2.3651268E-2,4.6070614E0,3.8029095E1,-2.7653683E-2,3.140318E-2,3.0330386E0,6.6950005E1,1.9338811E-3,9.968038E-2,-1.5101723E-2,5.677684E1,3.0218449E1,1.0661226E-1,-2.0849379E-2,5.441913E-2,-3.0594647E-2,4.3812454E-2,-2.4582038E-2,6.569299E-2,6.1649308E-3,1.0686114E-1,-1.1967913E-3,9.177493E-2],"split_indices":[15,17,9,4,9,5,13,1,7,10,0,7,1,0,0,18,4,0,0,0,4,1,0,0,0,0,0,0,0,0,0,0,0],"split_type":[0,0,0,0,0,0,0,0,0,0,0,0,0,0,0,0,0,0,0,0,0,0,0,0,0,0,0,0,0,0,0,0,0],"sum_hessian":[7.7337054E2,6.3442285E2,1.3894772E2,6.0433844E2,3.0084408E1,1.2847778E2,1.0469939E1,5.94739E2,9.59944E0,2.6275906E1,3.808502E0,1.2491044E2,3.567346E0,9.463562E0,1.0063772E0,5.838338E2,1.0905178E1,1.2922938E0,8.307146E0,1.2583642E0,2.5017542E1,7.995178E0,1.1691526E2,2.5221944E0,1.0451517E0,5.8050793E2,3.3258462E0,4.459848E0,6.44533E0,1.0186191E0,2.3998922E1,3.5284529E0,4.4667253E0],"tree_param":{"num_deleted":"0","num_feature":"23","num_nodes":"33","size_leaf_vector":"1"}},{"base_weights":[2.6562472E-3,6.831916E-1,-8.3690363E-1,8.4371585E-1,-8.393402E-1,-6.25795E-2,-9.105261E-1,8.9034593E-1,-6.306914E-1,6.89711E-2,-4.555012E-2,5.241502E-1,-4.4077363E-2,-9.143179E-1,7.8774085E-3,9.044094E-1,-6.000404E-1,-8.1184036E-1,1.8703591E-2,3.210148E-2,-2.9470561E-2,7.9570556E-1,-3.702981E-2,-9.1818523E-1,-0E0,4.545754E-2,-2.5699476E-2,-6.8135844E-3,-3.508968E-2,-6.474635E-3,-4.32378E-2,4.5429584E-2,-4.8678922E-3,-4.618473E-2,-1.9660037E-2],"categories":[],"categories_nodes":[],"categories_segments":[],"categories_sizes":[],"default_left":[0,0,0,0,0,0,0,0,0,0,0,0,0,0,0,0,0,0,0,0,0,0,0,0,0,0,0,0,0,0,0,0,0,0,0],"id":6,"left_children":[1,3,5,7,9,11,13,15,17,19,-1,21,-1,23,-1,25,27,29,-1,-1,-1,31,-1,33,-1,-1,-1,-1,-1,-1,-1,-1,-1,-1,-1],"loss_changes":[6.8510425E2,1.625888E2,3.0445953E1,4.182016E1,4.2878E0,2.3464796E1,2.2041016E0,1.276828E1,3.7884884E0,2.4510462E0,0E0,1.0349684E1,0E0,1.7817688E0,0E0,4.3862E0,1.02451324E-1,3.8137817E-1,0E0,0E0,0E0,2.5820131E0,0E0,9.1226196E-1,0E0,0E0,0E0,0E0,0E0,0E0,0E0,0E0,0E0,0E0,0E0],"parents":[2147483647,0,0,1,1,2,2,3,3,4,4,5,5,6,6,7,7,8,8,9,9,11,11,13,13,15,15,16,16,17,17,21,21,23,23],"right_children":[2,4,6,8,10,12,14,16,18,20,-1,22,-1,24,-1,26,28,30,-1,-1,-1,32,-1,34,-1,-1,-1,-1,-1,-1,-1,-1,-1,-1,-1],"split_conditions":[8.501157E0,4.4481087E0,2.3145528E0,5.6312007E-1,3.1876993E-1,1.1200155E1,4.1594473E3,1.8627657E2,2.0230993E1,9.084093E1,-4.555012E-2,9.480855E-2,-4.4077363E-2,8.123568E1,7.8774085E-3,1.9737004E0,6.8491556E-2,7.0502603E-1,1.8703591E-2,3.210148E-2,-2.9470561E-2,4.7139534E-1,-3.702981E-2,2.5828611E1,-0E0,4.545754E-2,-2.5699476E-2,-6.8135844E-3,-3.508968E-2,-6.474635E-3,-4.32378E-2,4.5429584E-2,-4.8678922E-3,-4.618473E-2,-1.9660037E-2],"split_indices":[16,7,7,19,19,16,8,12,9,2,0,6,0,5,0,18,6,7,0,0,0,13,0,9,0,0,0,0,0,0,0,0,0,0,0],"split_type":[0,0,0,0,0,0,0,0,0,0,0,0,0,0,0,0,0,0,0,0,0,0,0,0,0,0,0,0,0,0,0,0,0,0,0],"sum_hessian":[1.197123E3,6.6134863E2,5.357745E2,5.9873413E2,6.2614483E1,4.679685E1,4.8897763E2,5.808287E2,1.7905506E1,4.4794884E0,5.8134995E1,2.7402714E1,1.9394133E1,4.874846E2,1.493047E0,5.758551E2,4.9735723E0,1.5417429E1,2.4880764E0,2.4894161E0,1.9900723E0,2.292943E1,4.473284E0,4.854918E2,1.9927967E0,5.743647E2,1.4904069E0,1.4926064E0,3.4809656E0,1.4936576E0,1.3923771E1,2.0440298E1,2.4891331E0,4.7950964E2,5.9821243E0],"tree_param":{"num_deleted":"0","num_feature":"23","num_nodes":"35","size_leaf_vector":"1"}},{"base_weights":[-5.510549E-3,-4.4276005E-1,4.4561887E-1,-6.1530083E-1,9.6088237E-1,8.368502E-1,-4.2700288E-1,-6.590136E-1,1.0973105E0,1.1268413E0,-2.2129603E-1,9.876061E-1,-4.880901E-1,-5.8739895E-1,1.21073E0,-6.7423165E-1,5.684903E-2,-0E0,6.11759E-2,-2.5401676E-1,1.2912133E0,-2.8934589E-2,3.986726E-2,1.0738684E0,-2.1709907E-1,4.8744276E-1,-6.438786E-1,5.0285774E-1,-6.602918E-1,6.644845E-2,-0E0,-3.414562E-2,3.4727458E-2,-2.7139768E-2,2.0599192E-2,6.6424236E-2,-0E0,1.9457905E-2,6.334412E-2,3.3107806E-2,-3.294131E-2,5.1828187E-2,-2.0679142E-2,-0E0,-3.3702217E-2,5.3165413E-2,-2.5424648E-2,2.0778336E-2,-3.3738773E-2],"categories":[],"categories_nodes":[],"categories_segments":[],"categories_sizes":[],"default_left":[0,0,0,0,0,0,0,0,0,0,0,0,0,0,0,0,0,0,0,0,0,0,0,0,0,0,0,0,0,0,0,0,0,0,0,0,0,0,0,0,0,0,0,0,0,0,0,0,0],"id":7,"left_children":[1,3,5,7,9,11,13,15,17,19,21,23,25,27,29,31,-1,-1,-1,33,35,-1,-1,37,39,41,43,45,47,-1,-1,-1,-1,-1,-1,-1,-1,-1,-1,-1,-1,-1,-1,-1,-1,-1,-1,-1,-1],"loss_changes":[1.990554E2,1.2468908E2,1.6992645E2,3.490045E1,1.1411995E1,6.9098175E1,4.1181023E1,1.2921661E1,1.5227804E0,1.1718166E1,3.246041E0,3.2388947E1,5.7505016E0,1.1574318E1,1.9350433E0,5.7410736E0,0E0,0E0,0E0,1.4022821E0,2.0797195E0,0E0,0E0,3.7433258E1,8.737831E0,3.1591465E0,6.695347E-1,5.8870873E0,2.3777008E0,0E0,0E0,0E0,0E0,0E0,0E0,0E0,0E0,0E0,0E0,0E0,0E0,0E0,0E0,0E0,0E0,0E0,0E0,0E0,0E0],"parents":[2147483647,0,0,1,1,2,2,3,3,4,4,5,5,6,6,7,7,8,8,9,9,10,10,11,11,12,12,13,13,14,14,15,15,19,19,20,20,23,23,24,24,25,25,26,26,27,27,28,28],"right_children":[2,4,6,8,10,12,14,16,18,20,22,24,26,28,30,32,-1,-1,-1,34,36,-1,-1,38,40,42,44,46,48,-1,-1,-1,-1,-1,-1,-1,-1,-1,-1,-1,-1,-1,-1,-1,-1,-1,-1,-1,-1],"split_conditions":[5.152357E0,9.752282E0,1.2905421E1,4.5344534E0,2.4672093E2,2.789985E2,1.4590527E1,3.1272022E1,8.448078E1,1.00038376E2,1.0208667E1,9.396279E0,4.9426885E0,1.536994E2,1.5125701E-1,1.8627657E2,5.684903E-2,-0E0,6.11759E-2,5.0957777E-2,1.7169493E-1,-2.8934589E-2,3.986726E-2,1.2480432E2,5.895393E-1,1.3461032E2,1.846428E1,1.609477E1,1.9697872E0,6.644845E-2,-0E0,-3.414562E-2,3.4727458E-2,-2.7139768E-2,2.0599192E-2,6.6424236E-2,-0E0,1.9457905E-2,6.334412E-2,3.3107806E-2,-3.294131E-2,5.1828187E-2,-2.0679142E-2,-0E0,-3.3702217E-2,5.3165413E-2,-2.5424648E-2,2.0778336E-2,-3.3738773E-2],"split_indices":[17,16,17,7,12,12,9,1,2,12,9,7,7,12,6,12,0,0,0,6,6,0,0,12,19,0,1,16,7,0,0,0,0,0,0,0,0,0,0,0,0,0,0,0,0,0,0,0,0],"split_type":[0,0,0,0,0,0,0,0,0,0,0,0,0,0,0,0,0,0,0,0,0,0,0,0,0,0,0,0,0,0,0,0,0,0,0,0,0,0,0,0,0,0,0,0,0,0,0,0,0],"sum_hessian":[1.00712274E3,5.1155093E2,4.955718E2,4.5611636E2,5.5434574E1,3.422728E2,1.5329903E2,4.45421E2,1.0695371E1,4.872567E1,6.708906E0,3.0760284E2,3.466995E1,1.4026424E2,1.3034784E1,4.423531E2,3.067925E0,1.2711197E0,9.424251E0,5.0604057E0,4.366526E1,5.3588076E0,1.3500984E0,2.872277E2,2.0375164E1,4.392672E0,3.0277275E1,8.334524E0,1.3192972E2,1.174414E1,1.2906449E0,4.401359E2,2.217166E0,3.763633E0,1.296773E0,4.2372604E1,1.292659E0,6.3939384E1,2.2328828E2,6.5707417E0,1.3804421E1,2.7048106E0,1.6878614E0,1.2632233E0,2.9014053E1,5.3932834E0,2.9412408E0,1.292943E0,1.3063678E2],"tree_param":{"num_deleted":"0","num_feature":"23","num_nodes":"49","size_leaf_vector":"1"}},{"base_weights":[1.2580528E-2,-4.530166E-1,1.5303613E0,-5.504339E-1,1.4618979E0,1.8000865E0,-0E0,-5.833425E-1,1.5241811E0,-4.5521885E-2,1.8201421E0,1.8547773E0,-2.6230964E-1,-3.3810228E-1,7.503372E-2,-5.992723E-1,1.0825225E0,8.837064E-2,1.2686467E-3,-2.421896E-2,5.2898984E-2,1.560755E-3,9.6044205E-2,4.663986E-3,1.8915899E0,-2.0754535E-2,2.2006114E-3,-4.9809343E-1,6.1609533E-2,-3.0409563E-2,3.4745716E-2,-1.4995E-2,7.902084E-2,2.9616833E-2,-1.8811963E-2,5.0044186E-2,9.588667E-2,-2.926903E-2,3.0522052E-2],"categories":[],"categories_nodes":[],"categories_segments":[],"categories_sizes":[],"default_left":[0,0,0,0,0,0,0,0,0,0,0,0,0,0,0,0,0,0,0,0,0,0,0,0,0,0,0,0,0,0,0,0,0,0,0,0,0,0,0],"id":8,"left_children":[1,3,5,7,9,11,13,15,17,19,21,23,25,27,-1,29,31,-1,-1,-1,-1,-1,-1,33,35,-1,-1,37,-1,-1,-1,-1,-1,-1,-1,-1,-1,-1,-1],"loss_changes":[5.421628E2,1.10207726E2,7.427783E1,3.8981155E1,1.5725796E1,1.791507E1,1.4763238E1,1.5231674E1,3.0434036E0,3.5647376E0,3.9290543E0,9.971313E0,2.7926937E-1,6.4831476E0,0E0,6.725952E0,4.400924E0,0E0,0E0,0E0,0E0,0E0,0E0,1.1328257E0,1.1967163E0,0E0,0E0,2.5065331E0,0E0,0E0,0E0,0E0,0E0,0E0,0E0,0E0,0E0,0E0,0E0],"parents":[2147483647,0,0,1,1,2,2,3,3,4,4,5,5,6,6,7,7,8,8,9,9,10,10,11,11,12,12,13,13,15,15,16,16,23,23,24,24,27,27],"right_children":[2,4,6,8,10,12,14,16,18,20,22,24,26,28,-1,30,32,-1,-1,-1,-1,-1,-1,34,36,-1,-1,38,-1,-1,-1,-1,-1,-1,-1,-1,-1,-1,-1],"split_conditions":[2.2662613E2,1.0876157E2,1.3081671E1,2.4639845E1,5.913283E0,5.7248486E1,2.2530153E0,4.6775274E0,1.1467847E1,2.8902199E1,8.48641E1,2.7803955E0,5.75363E0,1.4366883E1,7.503372E-2,9.965164E0,1.20040085E2,8.837064E-2,1.2686467E-3,-2.421896E-2,5.2898984E-2,1.560755E-3,9.6044205E-2,7.639333E0,4.2082575E-1,-2.0754535E-2,2.2006114E-3,3.0521854E2,6.1609533E-2,-3.0409563E-2,3.4745716E-2,-1.4995E-2,7.902084E-2,2.9616833E-2,-1.8811963E-2,5.0044186E-2,9.588667E-2,-2.926903E-2,3.0522052E-2],"split_indices":[12,4,9,16,7,5,15,10,9,1,0,7,7,17,0,7,2,0,0,0,0,0,0,9,13,0,0,12,0,0,0,0,0,0,0,0,0,0,0],"split_type":[0,0,0,0,0,0,0,0,0,0,0,0,0,0,0,0,0,0,0,0,0,0,0,0,0,0,0,0,0,0,0,0,0,0,0,0,0,0,0],"sum_hessian":[7.650695E2,5.859562E2,1.7911333E2,5.583177E2,2.7638475E1,1.5210391E2,2.7009415E1,5.5035474E2,7.9629874E0,5.4211526E0,2.2217323E1,1.483199E2,3.784009E0,2.2654583E1,4.3548317E0,5.4583545E2,4.5192575E0,6.6395636E0,1.3234236E0,4.3448853E0,1.076267E0,1.307198E0,2.0910124E1,2.9685946E0,1.453513E2,2.5056603E0,1.2783487E0,2.1237282E1,1.4173009E0,5.4270276E2,3.1327302E0,1.2487825E0,3.270475E0,1.0523841E0,1.9162104E0,5.3738513E0,1.3997745E2,2.0208208E1,1.0290738E0],"tree_param":{"num_deleted":"0","num_feature":"23","num_nodes":"39","size_leaf_vector":"1"}},{"base_weights":[2.8587303E-3,6.5135425E-1,-8.4221476E-1,8.03135E-1,-7.256946E-1,-0E0,-8.6575496E-1,8.506142E-1,-4.2168546E-2,3.3408582E-1,-8.2701963E-1,3.92425E-2,-6.9056475E-1,-5.319952E-1,-8.870605E-1,8.7317336E-1,-4.0607053E-1,3.5415143E-2,-2.5318658E-2,1.3084243E-2,-8.6934054E-1,-6.922955E-3,-3.871795E-2,3.8437468E-1,-8.22319E-1,-1.3250713E-2,-4.4446252E-2,4.4040557E-2,-2.1091208E-2,2.2443883E-2,-3.980888E-2,-7.675351E-3,-4.4168387E-2,3.903612E-2,-2.8597591E-2,-5.8509684E-3,-4.287307E-2],"categories":[],"categories_nodes":[],"categories_segments":[],"categories_sizes":[],"default_left":[0,0,0,0,0,0,0,0,0,0,0,0,0,0,0,0,0,0,0,0,0,0,0,0,0,0,0,0,0,0,0,0,0,0,0,0,0],"id":9,"left_children":[1,3,5,7,9,11,13,15,-1,17,19,-1,21,23,25,27,29,-1,-1,-1,31,-1,-1,33,35,-1,-1,-1,-1,-1,-1,-1,-1,-1,-1,-1,-1],"loss_changes":[6.4596356E2,1.4000137E2,1.0163971E1,4.7726776E1,7.4858055E0,8.614117E0,2.926361E0,1.6986725E1,0E0,2.4059076E0,3.1096535E0,0E0,1.9188309E-1,9.047006E0,1.8969727E-1,6.105835E0,4.034595E0,0E0,0E0,0E0,3.5578156E-1,0E0,0E0,3.6720724E0,4.2677498E-1,0E0,0E0,0E0,0E0,0E0,0E0,0E0,0E0,0E0,0E0,0E0,0E0],"parents":[2147483647,0,0,1,1,2,2,3,3,4,4,5,5,6,6,7,7,9,9,10,10,12,12,13,13,14,14,15,15,16,16,20,20,23,23,24,24],"right_children":[2,4,6,8,10,12,14,16,-1,18,20,-1,22,24,26,28,30,-1,-1,-1,32,-1,-1,34,36,-1,-1,-1,-1,-1,-1,-1,-1,-1,-1,-1,-1],"split_conditions":[5.7808046E0,1.6849898E2,8.475287E1,8.9334357E-1,2.6207104E-1,3.3294243E-1,4.319928E1,6.843227E1,-4.2168546E-2,1.2088622E2,8.4361964E-1,3.92425E-2,1.0450111E2,1.2406728E2,3.9082613E0,1.10375375E-1,5.984967E-2,3.5415143E-2,-2.5318658E-2,1.3084243E-2,2.5736165E-1,-6.922955E-3,-3.871795E-2,1.09833855E2,2.8618986E1,-1.3250713E-2,-4.4446252E-2,4.4040557E-2,-2.1091208E-2,2.2443883E-2,-3.980888E-2,-7.675351E-3,-4.4168387E-2,3.903612E-2,-2.8597591E-2,-5.8509684E-3,-4.287307E-2],"split_indices":[17,12,12,15,19,19,4,4,0,0,18,0,2,12,1,6,6,0,0,0,13,0,0,2,22,0,0,0,0,0,0,0,0,0,0,0,0],"split_type":[0,0,0,0,0,0,0,0,0,0,0,0,0,0,0,0,0,0,0,0,0,0,0,0,0,0,0,0,0,0,0,0,0,0,0,0,0],"sum_hessian":[1.1767428E3,6.6600726E2,5.1073547E2,6.003275E2,6.567974E1,1.3889821E1,4.9684567E2,5.8403033E2,1.6297184E1,5.445019E0,6.0234726E1,6.451556E0,7.4382653E0,3.165299E1,4.6519266E2,5.741091E2,9.921275E0,3.9586449E0,1.4863737E0,1.971509E0,5.8263214E1,1.4869282E0,5.951337E0,7.454721E0,2.4198269E1,1.9781787E0,4.6321448E2,5.711376E2,2.971459E0,2.9810638E0,6.9402113E0,1.4863131E0,5.67769E1,5.474157E0,1.9805641E0,1.489041E0,2.2709229E1],"tree_param":{"num_deleted":"0","num_feature":"23","num_nodes":"37","size_leaf_vector":"1"}},{"base_weights":[-9.479084E-3,-4.3550766E-1,4.2426205E-1,-5.9495157E-1,8.8995135E-1,8.317849E-1,-4.6153665E-1,-6.451518E-1,1.1313958E0,1.0676029E0,-2.4084696E-1,9.7962576E-1,-4.1838688E-1,-6.017706E-1,1.0075663E0,-6.6710424E-1,6.1801934E-1,-0E0,6.251353E-2,2.0190941E-2,1.2317652E0,-2.8920798E-2,3.8279995E-2,2.94873E-2,1.0966808E0,5.6400734E-1,-5.617879E-1,7.277744E-2,-6.7308336E-1,6.205356E-2,-7.3659117E-3,-3.369407E-2,7.000476E-3,-1.1698234E-2,5.8373947E-2,-2.760984E-2,4.6660878E-2,6.361831E-2,-0E0,-3.0528465E-2,5.0158676E-2,5.8622416E-2,-2.430102E-2,4.8527367E-2,-1.6966369E-2,-3.2339837E-2,1.289303E-2,4.4009157E-2,-2.5458423E-2,1.2324208E-4,-3.4025304E-2],"categories":[],"categories_nodes":[],"categories_segments":[],"categories_sizes":[],"default_left":[0,0,0,0,0,0,0,0,0,0,0,0,0,0,0,0,0,0,0,0,0,0,0,0,0,0,0,0,0,0,0,0,0,0,0,0,0,0,0,0,0,0,0,0,0,0,0,0,0,0,0],"id":10,"left_children":[1,3,5,7,9,11,13,15,17,19,21,23,25,27,29,31,33,-1,-1,35,37,-1,-1,39,41,43,45,47,49,-1,-1,-1,-1,-1,-1,-1,-1,-1,-1,-1,-1,-1,-1,-1,-1,-1,-1,-1,-1,-1,-1],"loss_changes":[1.8277213E2,1.05975685E2,1.7730481E2,3.9347336E1,1.1172459E1,6.257512E1,3.2491467E1,1.2458832E1,1.6581116E0,7.907818E0,3.1627624E0,3.331784E1,5.4115214E0,6.94701E0,4.0177517E0,2.48555E0,4.04561E0,0E0,0E0,4.446256E0,1.9853821E0,0E0,0E0,2.191755E1,3.2746582E1,2.2348645E0,2.4457216E0,7.2323365E0,7.1529007E-1,0E0,0E0,0E0,0E0,0E0,0E0,0E0,0E0,0E0,0E0,0E0,0E0,0E0,0E0,0E0,0E0,0E0,0E0,0E0,0E0,0E0,0E0],"parents":[2147483647,0,0,1,1,2,2,3,3,4,4,5,5,6,6,7,7,8,8,9,9,10,10,11,11,12,12,13,13,14,14,15,15,16,16,19,19,20,20,23,23,24,24,25,25,26,26,27,27,28,28],"right_children":[2,4,6,8,10,12,14,16,18,20,22,24,26,28,30,32,34,-1,-1,36,38,-1,-1,40,42,44,46,48,50,-1,-1,-1,-1,-1,-1,-1,-1,-1,-1,-1,-1,-1,-1,-1,-1,-1,-1,-1,-1,-1,-1],"split_conditions":[5.152357E0,9.752282E0,2.1409354E0,4.5344534E0,2.4672093E2,1.1129612E2,1.4361625E1,6.6294685E1,2.4399168E0,1.1219294E2,1.0208667E1,1.017767E2,3.9069576E0,1.7861037E2,1.8185514E1,5.7167286E-1,5.984967E-2,-0E0,6.251353E-2,3.783914E0,7.201383E-1,-2.8920798E-2,3.8279995E-2,5.38696E1,1.5585915E1,1.2254949E2,1.3552472E1,7.203216E1,8.592264E1,6.205356E-2,-7.3659117E-3,-3.369407E-2,7.000476E-3,-1.1698234E-2,5.8373947E-2,-2.760984E-2,4.6660878E-2,6.361831E-2,-0E0,-3.0528465E-2,5.0158676E-2,5.8622416E-2,-2.430102E-2,4.8527367E-2,-1.6966369E-2,-3.2339837E-2,1.289303E-2,4.4009157E-2,-2.5458423E-2,1.2324208E-4,-3.4025304E-2],"split_indices":[17,16,15,7,12,4,9,4,17,12,9,12,7,12,16,13,6,0,0,7,13,0,0,4,17,2,9,4,2,0,0,0,0,0,0,0,0,0,0,0,0,0,0,0,0,0,0,0,0,0,0],"split_type":[0,0,0,0,0,0,0,0,0,0,0,0,0,0,0,0,0,0,0,0,0,0,0,0,0,0,0,0,0,0,0,0,0,0,0,0,0,0,0,0,0,0,0,0,0,0,0,0,0,0,0],"sum_hessian":[9.8709503E2,4.9808914E2,4.890059E2,4.4516528E2,5.2923855E1,3.3504025E2,1.5396562E2,4.3325104E2,1.1914233E1,4.5862976E1,7.0608807E0,2.9987457E2,3.51657E1,1.4115048E2,1.2815136E1,4.263919E2,6.859147E0,1.2782754E0,1.0635958E1,6.4489E0,3.9414074E1,5.680314E0,1.3805665E0,3.3122746E1,2.6675183E2,4.0168853E0,3.1148813E1,1.3359557E1,1.27790924E2,1.0669785E1,2.1453516E0,4.2312796E2,3.2639258E0,2.8430107E0,4.016136E0,4.139483E0,2.3094175E0,3.810238E1,1.3116949E0,2.0148363E1,1.2974382E1,2.5487286E2,1.1878946E1,2.7952135E0,1.2216718E0,2.852343E1,2.6253836E0,5.453121E0,7.906436E0,1.2497033E0,1.2654122E2],"tree_param":{"num_deleted":"0","num_feature":"23","num_nodes":"51","size_leaf_vector":"1"}},{"base_weights":[-2.4562967E-3,-3.9621183E-1,1.5608118E0,-5.3421783E-1,1.1988041E0,5.9081227E-1,1.747484E0,-5.769491E-1,1.2591665E0,2.8132275E-1,1.5883641E0,-2.9004925E-1,1.4905509E0,8.7903224E-2,2.0819979E-2,-5.9289306E-1,1.1256716E0,-1.467905E-1,8.106848E-2,-3.551246E-1,1.2295899E0,1.6931618E-3,1.6465248E0,-2.8034527E-2,5.4144885E-2,1.0024543E-2,8.482777E-2,-3.0003672E-2,5.7247933E-2,6.614675E-4,7.366712E-2,6.1725844E-3,-1.7001797E-2,-2.7041007E-2,2.9514333E-2,7.503756E-2,1.4845066E-3,3.794981E-2,8.639863E-2],"categories":[],"categories_nodes":[],"categories_segments":[],"categories_sizes":[],"default_left":[0,0,0,0,0,0,0,0,0,0,0,0,0,0,0,0,0,0,0,0,0,0,0,0,0,0,0,0,0,0,0,0,0,0,0,0,0,0,0],"id":11,"left_children":[1,3,5,7,9,11,13,15,17,19,21,23,25,-1,-1,27,29,31,-1,33,35,-1,37,-1,-1,-1,-1,-1,-1,-1,-1,-1,-1,-1,-1,-1,-1,-1,-1],"loss_changes":[4.6672958E2,1.3394055E2,2.63555E1,4.3448776E1,1.6700203E1,2.1329882E1,8.4375E-1,1.5439484E1,7.1353035E0,1.0027502E1,2.8277435E0,5.767418E0,2.9750175E0,0E0,0E0,7.39299E0,1.9023757E0,2.5036603E-1,0E0,2.0936294E0,1.9534845E0,0E0,7.856064E-1,0E0,0E0,0E0,0E0,0E0,0E0,0E0,0E0,0E0,0E0,0E0,0E0,0E0,0E0,0E0,0E0],"parents":[2147483647,0,0,1,1,2,2,3,3,4,4,5,5,6,6,7,7,8,8,9,9,10,10,11,11,12,12,15,15,16,16,17,17,19,19,20,20,22,22],"right_children":[2,4,6,8,10,12,14,16,18,20,22,24,26,-1,-1,28,30,32,-1,34,36,-1,38,-1,-1,-1,-1,-1,-1,-1,-1,-1,-1,-1,-1,-1,-1,-1,-1],"split_conditions":[2.1409354E0,1.2905421E1,1.9922981E2,2.789985E2,8.04319E1,3.5812886E0,5.5231358E1,7.9690045E-1,1.3677333E1,3.9272668E0,4.7867808E-1,1.3105044E1,1.9112457E0,8.7903224E-2,2.0819979E-2,5.060624E0,1.2306676E2,4.9876884E1,8.106848E-2,3.1531004E1,4.059066E1,1.6931618E-3,1.1669145E1,-2.8034527E-2,5.4144885E-2,1.0024543E-2,8.482777E-2,-3.0003672E-2,5.7247933E-2,6.614675E-4,7.366712E-2,6.1725844E-3,-1.7001797E-2,-2.7041007E-2,2.9514333E-2,7.503756E-2,1.4845066E-3,3.794981E-2,8.639863E-2],"split_indices":[15,17,12,12,4,10,5,13,16,10,13,17,18,0,0,10,0,5,0,14,5,0,16,0,0,0,0,0,0,0,0,0,0,0,0,0,0,0,0],"split_type":[0,0,0,0,0,0,0,0,0,0,0,0,0,0,0,0,0,0,0,0,0,0,0,0,0,0,0,0,0,0,0,0,0,0,0,0,0,0,0],"sum_hessian":[7.56422E2,6.048764E2,1.515456E2,5.57378E2,4.7498405E1,2.521617E1,1.2632942E2,5.451233E2,1.2254694E1,1.4746559E1,3.2751846E1,1.3027995E1,1.2188173E1,1.24940384E2,1.3890407E0,5.4076984E2,4.353462E0,2.5756154E0,9.679079E0,9.135286E0,5.6112733E0,1.3002688E0,3.1451576E1,1.143778E1,1.590214E0,2.0168345E0,1.0171339E1,5.39254E2,1.515817E0,1.352273E0,3.0011892E0,1.0086992E0,1.5669162E0,8.081636E0,1.0536499E0,4.3044534E0,1.3068197E0,3.6142316E0,2.7837345E1],"tree_param":{"num_deleted":"0","num_feature":"23","num_nodes":"39","size_leaf_vector":"1"}},{"base_weights":[6.3122767E-3,6.2700653E-1,-8.1793916E-1,7.959676E-1,-6.6454774E-1,-8.316481E-1,5.682611E-1,8.3444625E-1,-7.090697E-1,5.0115985E-1,-8.049037E-1,-3.390731E-1,-8.540491E-1,3.380951E-2,6.284199E-3,8.477551E-1,-3.5405573E-2,-0E0,-4.0686272E-2,3.8988143E-2,-2.478745E-2,-3.8076136E-3,-8.2908046E-1,5.9448165E-1,-4.055436E-2,7.786227E-3,-8.577377E-1,4.276927E-2,-3.1158468E-2,-4.7820504E-3,-4.2125013E-2,3.9018195E-2,-6.4058527E-3,-4.2977583E-2,-6.42796E-3],"categories":[],"categories_nodes":[],"categories_segments":[],"categories_sizes":[],"default_left":[0,0,0,0,0,0,0,0,0,0,0,0,0,0,0,0,0,0,0,0,0,0,0,0,0,0,0,0,0,0,0,0,0,0,0],"id":12,"left_children":[1,3,5,7,9,11,13,15,17,19,21,23,25,-1,-1,27,-1,-1,-1,-1,-1,-1,29,31,-1,-1,33,-1,-1,-1,-1,-1,-1,-1,-1],"loss_changes":[6.002769E2,1.4661734E2,1.0075897E1,3.4915375E1,1.318177E1,5.1026917E0,9.552932E-2,1.2485016E1,1.1276731E0,2.890442E0,1.0797043E0,1.089463E1,1.9801636E0,0E0,0E0,6.996399E0,0E0,0E0,0E0,0E0,0E0,0E0,4.9018478E-1,1.2967882E0,0E0,0E0,4.1955566E-1,0E0,0E0,0E0,0E0,0E0,0E0,0E0,0E0],"parents":[2147483647,0,0,1,1,2,2,3,3,4,4,5,5,6,6,7,7,8,8,9,9,10,10,11,11,12,12,15,15,22,22,23,23,26,26],"right_children":[2,4,6,8,10,12,14,16,18,20,22,24,26,-1,-1,28,-1,-1,-1,-1,-1,-1,30,32,-1,-1,34,-1,-1,-1,-1,-1,-1,-1,-1],"split_conditions":[5.7808046E0,9.632665E0,3.0111395E1,5.895393E-1,1.1219294E2,3.0826017E-1,5.7863684E0,1.9737004E0,1.0851145E1,5.313025E-1,7.2551975E0,7.6323934E0,9.4269484E-1,3.380951E-2,6.284199E-3,3.1272022E1,-3.5405573E-2,-0E0,-4.0686272E-2,3.8988143E-2,-2.478745E-2,-3.8076136E-3,2.0885989E-1,1.5237494E0,-4.055436E-2,7.786227E-3,2.7146774E1,4.276927E-2,-3.1158468E-2,-4.7820504E-3,-4.2125013E-2,3.9018195E-2,-6.4058527E-3,-4.2977583E-2,-6.42796E-3],"split_indices":[17,16,9,19,12,19,16,18,14,15,1,16,10,0,0,1,0,0,0,0,0,0,19,18,0,0,9,0,0,0,0,0,0,0,0],"split_type":[0,0,0,0,0,0,0,0,0,0,0,0,0,0,0,0,0,0,0,0,0,0,0,0,0,0,0,0,0,0,0,0,0,0,0],"sum_hessian":[1.1713488E3,6.6838715E2,5.029616E2,5.91472E2,7.6915184E1,4.9850378E2,4.4578104E0,5.7722626E2,1.4245705E1,7.91286E0,6.900233E1,2.2580551E1,4.7592325E2,2.9778264E0,1.4799839E0,5.7279956E2,4.4267244E0,1.9663585E0,1.22793455E1,6.43314E0,1.4797201E0,2.4817555E0,6.652057E1,7.42466E0,1.5155891E1,1.4834871E0,4.7443976E2,5.7032745E2,2.4720802E0,1.475185E0,6.504539E1,5.952007E0,1.4726532E0,4.7294727E2,1.4924932E0],"tree_param":{"num_deleted":"0","num_feature":"23","num_nodes":"35","size_leaf_vector":"1"}},{"base_weights":[1.0359131E-2,-4.5812201E-1,3.9901266E-1,-6.0549015E-1,8.559479E-1,6.903465E-1,-5.115253E-1,-6.552858E-1,9.911701E-1,9.702213E-1,-2.4895543E-2,8.011859E-1,-6.382823E-1,-6.065286E-1,5.1169794E-2,-6.646606E-1,4.0310904E-2,-0E0,5.4898E-2,-3.1194457E-1,1.0998901E0,9.49399E-1,-2.1950033E-1,-0E0,-3.334642E-2,5.228361E-3,-6.5656334E-1,-3.3354323E-2,1.1227566E-3,-2.306304E-2,6.246374E-4,5.8808167E-2,-6.712445E-3,5.227811E-2,-1.6006097E-2,-3.018256E-2,5.2839935E-2,4.779495E-2,-2.3226054E-2,-0E0,-3.32182E-2],"categories":[],"categories_nodes":[],"categories_segments":[],"categories_sizes":[],"default_left":[0,0,0,0,0,0,0,0,0,0,0,0,0,0,0,0,0,0,0,0,0,0,0,0,0,0,0,0,0,0,0,0,0,0,0,0,0,0,0,0,0],"id":13,"left_children":[1,3,5,7,9,11,13,15,17,19,-1,21,23,25,-1,27,-1,-1,-1,29,31,33,35,-1,-1,37,39,-1,-1,-1,-1,-1,-1,-1,-1,-1,-1,-1,-1,-1,-1],"loss_changes":[1.8144038E2,8.797684E1,1.4488403E2,3.2963745E1,7.6315117E0,6.1381927E1,1.9907085E1,5.9366455E0,1.2792282E0,7.526825E0,0E0,5.8058685E1,6.507778E-1,3.9102707E0,0E0,7.3506165E-1,0E0,0E0,0E0,2.7508625E-1,3.9427795E0,4.115442E1,2.4692245E1,0E0,0E0,5.106345E0,6.3970184E-1,0E0,0E0,0E0,0E0,0E0,0E0,0E0,0E0,0E0,0E0,0E0,0E0,0E0,0E0],"parents":[2147483647,0,0,1,1,2,2,3,3,4,4,5,5,6,6,7,7,8,8,9,9,11,11,12,12,13,13,15,15,19,19,20,20,21,21,22,22,25,25,26,26],"right_children":[2,4,6,8,10,12,14,16,18,20,-1,22,24,26,-1,28,-1,-1,-1,30,32,34,36,-1,-1,38,40,-1,-1,-1,-1,-1,-1,-1,-1,-1,-1,-1,-1,-1,-1],"split_conditions":[5.0880924E1,9.632665E0,2.5327951E2,4.482871E0,2.733454E2,2.9431756E0,1.536651E1,8.9334357E-1,2.6588008E0,1.00038376E2,-2.4895543E-2,2.3162273E1,2.1151112E1,5.9044415E-1,5.1169794E-2,2.9428556E1,4.0310904E-2,-0E0,5.4898E-2,1.2254919E2,2.5680807E0,2.1687141E1,5.5023324E-1,-0E0,-3.334642E-2,7.3920524E-1,5.266859E1,-3.3354323E-2,1.1227566E-3,-2.306304E-2,6.246374E-4,5.8808167E-2,-6.712445E-3,5.227811E-2,-1.6006097E-2,-3.018256E-2,5.2839935E-2,4.779495E-2,-2.3226054E-2,-0E0,-3.32182E-2],"split_indices":[4,16,12,7,12,15,9,15,17,12,0,9,1,15,0,1,0,0,0,3,15,16,15,0,0,19,4,0,0,0,0,0,0,0,0,0,0,0,0,0,0],"split_type":[0,0,0,0,0,0,0,0,0,0,0,0,0,0,0,0,0,0,0,0,0,0,0,0,0,0,0,0,0,0,0,0,0,0,0,0,0,0,0,0,0],"sum_hessian":[9.9453284E2,4.5075674E2,5.437761E2,4.0585672E2,4.4900024E1,4.1223114E2,1.3154497E2,3.9421445E2,1.1642286E1,4.1734615E1,3.1654086E0,3.8092514E2,3.1306023E1,1.2450855E2,7.0364094E0,3.923116E2,1.9028288E0,1.2784896E0,1.0363796E1,3.6331475E0,3.8101467E1,3.3277145E2,4.8153675E1,1.2525278E0,3.0053495E1,9.3300705E0,1.1517848E2,3.9110547E2,1.2061429E0,2.410336E0,1.2228113E0,3.6004307E1,2.097161E0,3.0957693E2,2.3194523E1,3.7478477E1,1.0675197E1,2.8137074E0,6.5163636E0,1.2629069E0,1.1391557E2],"tree_param":{"num_deleted":"0","num_feature":"23","num_nodes":"41","size_leaf_vector":"1"}},{"base_weights":[-1.3941336E-2,-4.435867E-1,1.2741616E0,-5.531317E-1,1.0518522E0,1.4723387E0,-1.1182199E-1,-5.853727E-1,9.134458E-1,1.402403E0,-2.6258847E-2,1.522575E0,-2.9890254E-1,-4.7909793E-1,1.1072004E0,-5.9649694E-1,9.718339E-1,1.2523198E0,-1.9306337E-2,-1.6678339E-2,1.5031567E0,-1.0917218E-1,1.5474433E0,-2.25374E-2,6.52254E-3,-2.8764525E-2,2.6625887E-2,6.909265E-2,1.5238876E-3,-3.0104075E-2,2.4214026E-2,5.9898008E-2,5.648263E-3,-0E0,7.298215E-2,2.3226788E-2,8.1711054E-2,-1.5459642E-2,6.1467933E-3,3.5707604E-2,7.889586E-2],"categories":[],"categories_nodes":[],"categories_segments":[],"categories_sizes":[],"default_left":[0,0,0,0,0,0,0,0,0,0,0,0,0,0,0,0,0,0,0,0,0,0,0,0,0,0,0,0,0,0,0,0,0,0,0,0,0,0,0,0,0],"id":14,"left_children":[1,3,5,7,9,11,13,15,17,19,-1,21,23,25,27,29,31,33,-1,-1,35,37,39,-1,-1,-1,-1,-1,-1,-1,-1,-1,-1,-1,-1,-1,-1,-1,-1,-1,-1],"loss_changes":[4.185383E2,9.345833E1,5.2251892E1,2.5527115E1,2.2384083E1,1.5313812E1,1.1449072E1,9.524857E0,5.7265377E0,6.2557487E0,0E0,6.8566284E0,4.3953398E-1,2.2188497E0,1.5667071E0,3.4150543E0,5.093949E-1,2.380519E0,0E0,0E0,3.2099228E0,2.0959052E-1,2.6807861E0,0E0,0E0,0E0,0E0,0E0,0E0,0E0,0E0,0E0,0E0,0E0,0E0,0E0,0E0,0E0,0E0,0E0,0E0],"parents":[2147483647,0,0,1,1,2,2,3,3,4,4,5,5,6,6,7,7,8,8,9,9,11,11,12,12,13,13,14,14,15,15,16,16,17,17,20,20,21,21,22,22],"right_children":[2,4,6,8,10,12,14,16,18,20,-1,22,24,26,28,30,32,34,-1,-1,36,38,40,-1,-1,-1,-1,-1,-1,-1,-1,-1,-1,-1,-1,-1,-1,-1,-1,-1,-1],"split_conditions":[2.2662613E2,1.2905421E1,1.3469074E1,9.281499E0,1.3402448E1,5.6469414E1,1.8969166E1,2.556105E1,1.3552472E1,2.4086685E0,-2.6258847E-2,2.7803955E0,8.095451E1,3.1276923E2,4.3451286E1,4.6775274E0,9.027052E0,2.8672369E0,-1.9306337E-2,-1.6678339E-2,1.308359E1,5.0295865E2,2.6213372E0,-2.25374E-2,6.52254E-3,-2.8764525E-2,2.6625887E-2,6.909265E-2,1.5238876E-3,-3.0104075E-2,2.4214026E-2,5.9898008E-2,5.648263E-3,-0E0,7.298215E-2,2.3226788E-2,8.1711054E-2,-1.5459642E-2,6.1467933E-3,3.5707604E-2,7.889586E-2],"split_indices":[12,17,9,7,9,5,16,16,9,10,0,7,22,12,5,10,9,10,0,0,16,11,10,0,0,0,0,0,0,0,0,0,0,0,0,0,0,0,0,0,0],"split_type":[0,0,0,0,0,0,0,0,0,0,0,0,0,0,0,0,0,0,0,0,0,0,0,0,0,0,0,0,0,0,0,0,0,0,0,0,0,0,0,0,0],"sum_hessian":[7.5439465E2,5.6625433E2,1.8814029E2,5.282552E2,3.7999153E1,1.6461272E2,2.352757E1,5.1754663E2,1.0708596E1,3.123108E1,6.7680736E0,1.6026411E2,4.3485994E0,1.8609715E1,4.9178553E0,5.1455194E2,2.9946685E0,8.583649E0,2.124947E0,1.5319855E0,2.9699093E1,2.2945464E0,1.5796957E2,3.3477204E0,1.000879E0,1.7477938E1,1.1317766E0,3.6185627E0,1.2992928E0,5.124395E2,2.1123946E0,1.9658486E0,1.02882E0,1.4117957E0,7.171853E0,3.922503E0,2.577659E1,1.2854917E0,1.0090547E0,6.551082E0,1.5141849E2],"tree_param":{"num_deleted":"0","num_feature":"23","num_nodes":"41","size_leaf_vector":"1"}},{"base_weights":[-6.5313396E-3,6.0476863E-1,-7.983897E-1,7.669721E-1,-6.4338535E-1,-8.147886E-1,4.9217573E-1,8.090005E-1,-7.0830554E-1,2.2698046E-1,-8.0721605E-1,-3.110494E-1,-8.3006436E-1,3.6031995E-2,-8.294883E-3,8.2359153E-1,-5.880749E-1,6.4873346E-3,-4.0250212E-2,3.964389E-2,-3.3948634E-2,-2.854889E-1,-4.1718546E-2,5.729496E-1,-6.9034016E-1,-5.3454936E-1,-4.1974768E-2,4.1551363E-2,-2.060005E-2,-3.4277834E-2,-5.660999E-3,8.9035025E-3,-2.8363986E-2,7.384803E-3,3.337336E-2,-3.9246767E-3,-3.787609E-2,2.9822275E-2,-3.7792075E-2],"categories":[],"categories_nodes":[],"categories_segments":[],"categories_sizes":[],"default_left":[0,0,0,0,0,0,0,0,0,0,0,0,0,0,0,0,0,0,0,0,0,0,0,0,0,0,0,0,0,0,0,0,0,0,0,0,0,0,0],"id":15,"left_children":[1,3,5,7,9,11,13,15,17,19,21,23,25,-1,-1,27,29,-1,-1,-1,-1,31,-1,33,35,37,-1,-1,-1,-1,-1,-1,-1,-1,-1,-1,-1,-1,-1],"loss_changes":[5.6463873E2,1.337598E2,1.1189362E1,3.673236E1,1.1102613E1,3.4929504E0,1.2159967E0,1.207431E1,1.5185528E0,7.086505E0,5.624809E-1,5.9650617E0,7.7038574E-1,0E0,0E0,5.5479126E0,1.3770652E-1,0E0,0E0,0E0,0E0,7.7862096E-1,0E0,3.872013E-2,3.5561752E-1,5.005287E0,0E0,0E0,0E0,0E0,0E0,0E0,0E0,0E0,0E0,0E0,0E0,0E0,0E0],"parents":[2147483647,0,0,1,1,2,2,3,3,4,4,5,5,6,6,7,7,8,8,9,9,10,10,11,11,12,12,15,15,16,16,21,21,23,23,24,24,25,25],"right_children":[2,4,6,8,10,12,14,16,18,20,22,24,26,-1,-1,28,30,-1,-1,-1,-1,32,-1,34,36,38,-1,-1,-1,-1,-1,-1,-1,-1,-1,-1,-1,-1,-1],"split_conditions":[5.7808046E0,9.632665E0,2.7146774E1,4.5344534E0,2.474042E0,6.128001E0,3.0321038E0,7.203216E1,8.867404E1,1.4679375E2,4.085046E1,5.779695E-2,9.289241E1,3.6031995E-2,-8.294883E-3,1.8627657E2,1.9585672E1,6.4873346E-3,-4.0250212E-2,3.964389E-2,-3.3948634E-2,1.1051077E1,-4.1718546E-2,4.592797E1,1.021286E2,4.0254204E1,-4.1974768E-2,4.1551363E-2,-2.060005E-2,-3.4277834E-2,-5.660999E-3,8.9035025E-3,-2.8363986E-2,7.384803E-3,3.337336E-2,-3.9246767E-3,-3.787609E-2,2.9822275E-2,-3.7792075E-2],"split_indices":[17,16,9,7,7,17,7,4,0,12,4,6,12,0,0,12,9,0,0,0,0,16,0,5,0,4,0,0,0,0,0,0,0,0,0,0,0,0,0],"split_type":[0,0,0,0,0,0,0,0,0,0,0,0,0,0,0,0,0,0,0,0,0,0,0,0,0,0,0,0,0,0,0,0,0,0,0,0,0,0,0],"sum_hessian":[1.1644198E3,6.571907E2,5.0722903E2,5.820201E2,7.517064E1,5.013052E2,5.9238205E0,5.664035E2,1.5616536E1,1.1750286E1,6.342035E1,1.5575948E1,4.8572928E2,4.439453E0,1.4843671E0,5.6102625E2,5.377294E0,1.4731736E0,1.4143363E1,7.3773007E0,4.372985E0,3.8893883E0,5.9530964E1,4.4440746E0,1.1131873E1,1.7133791E1,4.685955E2,5.580761E2,2.9501016E0,3.9185555E0,1.4587384E0,1.4754343E0,2.413954E0,1.4665244E0,2.9775505E0,1.4631678E0,9.668705E0,2.4524524E0,1.4681338E1],"tree_param":{"num_deleted":"0","num_feature":"23","num_nodes":"39","size_leaf_vector":"1"}},{"base_weights":[1.1724905E-2,-4.012769E-1,4.0347302E-1,-5.7287097E-1,7.293622E-1,7.416955E-1,-4.4818845E-1,-6.2688917E-1,8.7856835E-1,8.706483E-1,-3.5061544E-1,8.6554265E-1,-3.6353162E-1,3.5300258E-1,-6.4026237E-1,-6.4964324E-1,6.627783E-1,9.572973E-1,-0E0,6.6962786E-2,1.1552252E0,-2.8377695E-2,1.8101674E-2,1.9550624E-1,9.818652E-1,4.1411376E-1,-6.2925756E-1,9.969779E-1,-3.7128535E-1,-1.6982662E-2,-6.644749E-1,-3.271332E-2,1.7514406E-2,-1.7601436E-2,4.978991E-2,9.619121E-3,5.2236415E-2,-2.122489E-2,4.944978E-2,2.4594368E-2,6.004895E-2,-2.2009742E-2,4.5183E-2,5.307734E-2,-1.3243149E-2,5.1451057E-2,-1.743681E-2,-0E0,-3.3066656E-2,5.7027426E-2,-1.6445884E-2,-3.1164164E-2,1.3399809E-2,3.850497E-2,-2.454785E-2,-0E0,-3.3645425E-2],"categories":[],"categories_nodes":[],"categories_segments":[],"categories_sizes":[],"default_left":[0,0,0,0,0,0,0,0,0,0,0,0,0,0,0,0,0,0,0,0,0,0,0,0,0,0,0,0,0,0,0,0,0,0,0,0,0,0,0,0,0,0,0,0,0,0,0,0,0,0,0,0,0,0,0,0,0],"id":16,"left_children":[1,3,5,7,9,11,13,15,17,19,21,23,25,27,29,31,33,35,-1,37,39,-1,-1,41,43,45,47,49,51,53,55,-1,-1,-1,-1,-1,-1,-1,-1,-1,-1,-1,-1,-1,-1,-1,-1,-1,-1,-1,-1,-1,-1,-1,-1,-1,-1],"loss_changes":[1.5714272E2,9.2109924E1,1.439737E2,3.275316E1,9.916698E0,4.9272995E1,2.214611E1,1.2077652E1,1.0058804E0,1.255574E1,1.4441038E0,2.4762283E1,7.850709E0,1.3517185E1,1.6591148E0,2.0654602E0,2.8822424E0,5.992212E-1,0E0,7.607499E0,4.8534775E-1,0E0,0E0,2.2484991E1,2.7552643E1,5.0405E0,5.9570885E-1,3.3486567E0,2.4351578E0,2.3977273E0,6.8223953E-1,0E0,0E0,0E0,0E0,0E0,0E0,0E0,0E0,0E0,0E0,0E0,0E0,0E0,0E0,0E0,0E0,0E0,0E0,0E0,0E0,0E0,0E0,0E0,0E0,0E0,0E0],"parents":[2147483647,0,0,1,1,2,2,3,3,4,4,5,5,6,6,7,7,8,8,9,9,10,10,11,11,12,12,13,13,14,14,15,15,16,16,17,17,19,19,20,20,23,23,24,24,25,25,26,26,27,27,28,28,29,29,30,30],"right_children":[2,4,6,8,10,12,14,16,18,20,22,24,26,28,30,32,34,36,-1,38,40,-1,-1,42,44,46,48,50,52,54,56,-1,-1,-1,-1,-1,-1,-1,-1,-1,-1,-1,-1,-1,-1,-1,-1,-1,-1,-1,-1,-1,-1,-1,-1,-1,-1],"split_conditions":[5.152357E0,5.0149715E-1,2.1892824E0,4.482871E0,2.5327951E2,1.4366883E1,1.9922981E2,1.8481681E0,4E0,1.2855331E0,4.1899532E1,5.941403E0,1.1615552E-1,3.4555006E0,4.6658796E-1,8.587235E-1,2.1050897E0,8.187873E1,-0E0,3.783914E0,2.2551231E0,-2.8377695E-2,1.8101674E-2,1.309545E2,2.733454E2,2.0234425E0,1.3642609E0,3.2035325E0,2.5792224E3,1.1396856E2,3.2442155E-1,-3.271332E-2,1.7514406E-2,-1.7601436E-2,4.978991E-2,9.619121E-3,5.2236415E-2,-2.122489E-2,4.944978E-2,2.4594368E-2,6.004895E-2,-2.2009742E-2,4.5183E-2,5.307734E-2,-1.3243149E-2,5.1451057E-2,-1.743681E-2,-0E0,-3.3066656E-2,5.7027426E-2,-1.6445884E-2,-3.1164164E-2,1.3399809E-2,3.850497E-2,-2.454785E-2,-0E0,-3.3645425E-2],"split_indices":[17,19,15,7,12,17,12,18,21,18,5,17,6,10,19,15,10,2,0,7,7,0,0,12,12,18,18,15,8,0,13,0,0,0,0,0,0,0,0,0,0,0,0,0,0,0,0,0,0,0,0,0,0,0,0,0,0],"split_type":[0,0,0,0,0,0,0,0,0,0,0,0,0,0,0,0,0,0,0,0,0,0,0,0,0,0,0,0,0,0,0,0,0,0,0,0,0,0,0,0,0,0,0,0,0,0,0,0,0,0,0,0,0,0,0,0,0],"sum_hessian":[9.692576E2,4.716935E2,4.975641E2,4.10044E2,6.1649517E1,3.563088E2,1.4125528E2,3.959451E2,1.4098904E1,5.4770664E1,6.878854E0,3.206819E2,3.5626938E1,2.7052732E1,1.1420255E2,3.896443E2,6.300812E0,1.2815153E1,1.2837512E0,1.4737255E1,4.003341E1,5.537191E0,1.3416629E0,4.796075E1,2.7272113E2,8.83541E0,2.6791527E1,1.4194109E1,1.28586235E1,4.4885902E0,1.0971396E2,3.882947E2,1.3495828E0,1.4685022E0,4.8323097E0,1.7601473E0,1.1055005E1,9.89447E0,4.842785E0,3.4823809E0,3.655103E1,2.5398237E1,2.2562513E1,2.5655292E2,1.6168205E1,4.7714653E0,4.0639453E0,1.2684207E0,2.5523106E1,1.3001492E1,1.1926165E0,9.353159E0,3.5054646E0,1.3729374E0,3.1156528E0,1.2510736E0,1.0846289E2],"tree_param":{"num_deleted":"0","num_feature":"23","num_nodes":"57","size_leaf_vector":"1"}},{"base_weights":[1.5243017E-2,-4.591151E-1,1.1172098E0,-5.6190926E-1,9.7036463E-1,1.3341472E0,-1.571636E-1,-5.890827E-1,7.3534644E-1,1.3154979E0,-2.5753079E-2,1.4212532E0,2.97155E-1,-4.1992572E-1,6.680195E-2,-5.9507203E-1,4.449731E-2,-2.117203E-2,1.2523352E0,1.4159314E-1,1.4654516E0,2.9938346E-1,1.4640372E0,-2.9336363E-1,6.6406295E-2,-5.4868543E-1,4.595464E-2,-2.9955287E-2,2.7152022E-2,5.8934987E-3,6.9824874E-2,-1.9718258E-2,4.3789383E-2,1.7747378E-2,7.577879E-2,-1.5136892E-2,5.6360573E-2,4.3714236E-2,7.488063E-2,-2.708371E-2,4.1968357E-2,-2.9118067E-2,4.8925313E-3],"categories":[],"categories_nodes":[],"categories_segments":[],"categories_sizes":[],"default_left":[0,0,0,0,0,0,0,0,0,0,0,0,0,0,0,0,0,0,0,0,0,0,0,0,0,0,0,0,0,0,0,0,0,0,0,0,0,0,0,0,0,0,0],"id":17,"left_children":[1,3,5,7,9,11,13,15,17,19,-1,21,23,25,-1,27,-1,-1,29,31,33,35,37,39,-1,41,-1,-1,-1,-1,-1,-1,-1,-1,-1,-1,-1,-1,-1,-1,-1,-1,-1],"loss_changes":[3.8879944E2,7.6890205E1,6.221222E1,1.7538544E1,1.8790855E1,1.669989E1,1.3570305E1,4.7196045E0,6.803848E0,4.715458E0,0E0,7.845886E0,1.03492775E1,5.503657E0,0E0,2.5118713E0,0E0,0E0,9.0369034E-1,2.1460238E0,6.9026566E-1,4.3206997E0,1.8088074E0,3.533156E0,0E0,7.0077133E-1,0E0,0E0,0E0,0E0,0E0,0E0,0E0,0E0,0E0,0E0,0E0,0E0,0E0,0E0,0E0,0E0,0E0],"parents":[2147483647,0,0,1,1,2,2,3,3,4,4,5,5,6,6,7,7,8,8,9,9,11,11,12,12,13,13,15,15,18,18,19,19,20,20,21,21,22,22,23,23,25,25],"right_children":[2,4,6,8,10,12,14,16,18,20,-1,22,24,26,-1,28,-1,-1,30,32,34,36,38,40,-1,42,-1,-1,-1,-1,-1,-1,-1,-1,-1,-1,-1,-1,-1,-1,-1,-1,-1],"split_conditions":[2.1646205E2,1.2905421E1,1.3183229E1,1.6902177E2,1.3402448E1,5.2065903E1,1.4366883E1,3.5978081E0,1.1141945E-1,1.1669145E1,-2.5753079E-2,4.00451E0,7.636475E0,9.5242676E1,6.680195E-2,3.1354916E0,4.449731E-2,-2.117203E-2,3.9069576E0,1.2958639E0,4.5118707E-1,2.298144E0,3.5232748E2,1.1051206E2,6.6406295E-2,7.201383E-1,4.595464E-2,-2.9955287E-2,2.7152022E-2,5.8934987E-3,6.9824874E-2,-1.9718258E-2,4.3789383E-2,1.7747378E-2,7.577879E-2,-1.5136892E-2,5.6360573E-2,4.3714236E-2,7.488063E-2,-2.708371E-2,4.1968357E-2,-2.9118067E-2,4.8925313E-3],"split_indices":[12,17,9,0,9,5,17,15,6,16,0,7,7,22,0,18,0,0,7,15,13,18,11,4,0,13,0,0,0,0,0,0,0,0,0,0,0,0,0,0,0,0,0],"split_type":[0,0,0,0,0,0,0,0,0,0,0,0,0,0,0,0,0,0,0,0,0,0,0,0,0,0,0,0,0,0,0,0,0,0,0,0,0,0,0,0,0,0,0],"sum_hessian":[7.416837E2,5.1883575E2,2.22848E2,4.8466058E2,3.4175167E1,1.9045781E2,3.2390198E1,4.7532693E2,9.333628E0,2.7879248E1,6.295921E0,1.752685E2,1.5189317E1,2.8211504E1,4.1786947E0,4.7407245E2,1.2544894E0,2.8756404E0,6.457987E0,3.453651E0,2.4425596E1,6.8181977E0,1.6845029E2,1.0050852E1,5.1384654E0,2.6343256E1,1.868247E0,4.7295767E2,1.1147735E0,1.0112638E0,5.446723E0,2.1851552E0,1.2684958E0,1.4900421E0,2.2935555E1,4.244476E0,2.5737221E0,1.0690463E1,1.5775983E2,8.744102E0,1.30675E0,2.5280415E1,1.062843E0],"tree_param":{"num_deleted":"0","num_feature":"23","num_nodes":"43","size_leaf_vector":"1"}},{"base_weights":[-2.734573E-3,6.0191095E-1,-7.419915E-1,7.4520886E-1,-6.8393916E-1,-7.9118013E-1,2.1488288E-1,7.8926927E-1,-5.800446E-1,1.5524413E-1,-7.7942073E-1,-8.013152E-1,3.5871938E-1,6.8766266E-1,-5.262318E-1,8.077896E-1,-5.254232E-1,1.698326E-2,-7.416663E-1,-2.8211076E-2,3.2449596E-2,-1.5968457E-1,-4.034447E-2,2.38381E-2,-8.063388E-1,3.122135E-2,-6.1078006E-3,3.9155822E-2,-6.907569E-3,-3.6728945E-2,1.1923798E-2,4.060964E-2,-2.2959298E-2,6.7797266E-3,-3.5071824E-2,-3.944893E-2,-5.4208143E-3,7.1646445E-3,-2.1914853E-2,-1.4756194E-2,-4.073734E-2],"categories":[],"categories_nodes":[],"categories_segments":[],"categories_sizes":[],"default_left":[0,0,0,0,0,0,0,0,0,0,0,0,0,0,0,0,0,0,0,0,0,0,0,0,0,0,0,0,0,0,0,0,0,0,0,0,0,0,0,0,0],"id":18,"left_children":[1,3,5,7,9,11,13,15,17,19,21,23,25,27,29,31,33,-1,35,-1,-1,37,-1,-1,39,-1,-1,-1,-1,-1,-1,-1,-1,-1,-1,-1,-1,-1,-1,-1,-1],"loss_changes":[5.147602E2,1.1722516E2,2.4617554E1,3.378711E1,5.308382E0,6.079254E0,9.495904E0,1.3907135E1,3.0953035E0,2.9539738E0,7.5673676E-1,3.5586243E0,7.5429225E-1,1.4657135E0,1.9166915E0,3.4506836E0,1.106566E0,0E0,3.174572E-1,0E0,0E0,4.1730785E-1,0E0,0E0,1.7452393E0,0E0,0E0,0E0,0E0,0E0,0E0,0E0,0E0,0E0,0E0,0E0,0E0,0E0,0E0,0E0,0E0],"parents":[2147483647,0,0,1,1,2,2,3,3,4,4,5,5,6,6,7,7,8,8,9,9,10,10,11,11,12,12,13,13,14,14,15,15,16,16,18,18,21,21,24,24],"right_children":[2,4,6,8,10,12,14,16,18,20,22,24,26,28,30,32,34,-1,36,-1,-1,38,-1,-1,40,-1,-1,-1,-1,-1,-1,-1,-1,-1,-1,-1,-1,-1,-1,-1,-1],"split_conditions":[8.501157E0,4.2315598E0,2.3743979E1,6.5280396E1,3.1876993E-1,8.123568E1,4.449981E-1,5.895393E-1,1.0512302E0,1.6985481E1,1.4323115E1,4.525959E-1,1.14325195E2,2.6405387E0,6.642955E1,1.2965411E-1,1.7002407E1,1.698326E-2,6.8571686E1,-2.8211076E-2,3.2449596E-2,8.879941E1,-4.034447E-2,2.38381E-2,8.14404E-1,3.122135E-2,-6.1078006E-3,3.9155822E-2,-6.907569E-3,-3.6728945E-2,1.1923798E-2,4.060964E-2,-2.2959298E-2,6.7797266E-3,-3.5071824E-2,-3.944893E-2,-5.4208143E-3,7.1646445E-3,-2.1914853E-2,-1.4756194E-2,-4.073734E-2],"split_indices":[16,7,9,4,19,5,19,19,18,9,1,18,2,10,5,6,1,0,5,0,0,2,0,0,7,0,0,0,0,0,0,0,0,0,0,0,0,0,0,0,0],"split_type":[0,0,0,0,0,0,0,0,0,0,0,0,0,0,0,0,0,0,0,0,0,0,0,0,0,0,0,0,0,0,0,0,0,0,0,0,0,0,0,0,0],"sum_hessian":[1.1495883E3,6.3239594E2,5.171923E2,5.6943506E2,6.2960865E1,4.9216974E2,2.5022564E1,5.515768E2,1.7858236E1,6.2608967E0,5.6699966E1,4.882564E2,3.9133327E0,1.5403351E1,9.619214E0,5.4436975E2,7.2070317E0,2.4120586E0,1.54461775E1,2.4075155E0,3.8533812E0,2.8501356E0,5.384983E1,1.4660192E0,4.8679037E2,2.4622495E0,1.4510832E0,1.3962281E1,1.441069E0,7.693314E0,1.9258997E0,5.4292084E2,1.4489633E0,1.4443328E0,5.762699E0,1.3996608E1,1.4495696E0,1.4260956E0,1.4240398E0,8.653292E0,4.781371E2],"tree_param":{"num_deleted":"0","num_feature":"23","num_nodes":"41","size_leaf_vector":"1"}},{"base_weights":[2.8676563E-4,-4.3166882E-1,3.4682685E-1,-5.8798397E-1,7.720124E-1,6.100428E-1,-4.7862658E-1,-6.3470304E-1,7.376767E-1,-2.4304261E-2,8.748785E-1,7.1705145E-1,-6.003436E-1,-6.137572E-1,9.9548805E-1,-6.467146E-1,3.9219804E-2,-9.908175E-2,5.3166926E-2,9.732521E-1,-2.3722453E-2,8.667228E-1,-5.8719452E-2,1.0136017E-2,-3.2724403E-2,-6.4373434E-1,2.8925344E-2,5.295908E-2,1.4377457E-2,-3.259164E-2,1.3630739E-2,-2.1394959E-2,1.7774744E-2,5.1741578E-2,-1.8838305E-2,4.76356E-2,-9.982702E-3,-2.563355E-2,4.680213E-2,-0E0,-3.2965127E-2],"categories":[],"categories_nodes":[],"categories_segments":[],"categories_sizes":[],"default_left":[0,0,0,0,0,0,0,0,0,0,0,0,0,0,0,0,0,0,0,0,0,0,0,0,0,0,0,0,0,0,0,0,0,0,0,0,0,0,0,0,0],"id":19,"left_children":[1,3,5,7,9,11,13,15,17,-1,19,21,23,25,27,29,-1,31,-1,33,-1,35,37,-1,-1,39,-1,-1,-1,-1,-1,-1,-1,-1,-1,-1,-1,-1,-1,-1,-1],"loss_changes":[1.438079E2,8.087986E1,1.1615825E2,2.3933624E1,6.870228E0,5.2876144E1,2.6346678E1,6.745041E0,3.8241997E0,0E0,6.642723E0,4.3380173E1,1.628027E0,4.6393547E0,6.5065384E-2,1.9297333E0,0E0,8.3989865E-1,0E0,4.067631E0,0E0,2.8912277E1,2.8014656E1,0E0,0E0,1.1179886E0,0E0,0E0,0E0,0E0,0E0,0E0,0E0,0E0,0E0,0E0,0E0,0E0,0E0,0E0,0E0],"parents":[2147483647,0,0,1,1,2,2,3,3,4,4,5,5,6,6,7,7,8,8,10,10,11,11,12,12,13,13,14,14,15,15,17,17,19,19,21,21,22,22,25,25],"right_children":[2,4,6,8,10,12,14,16,18,-1,20,22,24,26,28,30,-1,32,-1,34,-1,36,38,-1,-1,40,-1,-1,-1,-1,-1,-1,-1,-1,-1,-1,-1,-1,-1,-1,-1],"split_conditions":[5.0880924E1,4.037562E0,2.5327951E2,1.7176703E2,1.017767E2,2.9431756E0,1.536651E1,1.0824834E1,7.5056987E0,-2.4304261E-2,8.980006E0,2.1515028E1,2.6517818E0,5.7248486E1,1.384042E2,5.7167286E-1,3.9219804E-2,1.3049308E0,5.3166926E-2,6.9218946E-1,-2.3722453E-2,2.1687141E1,4.405304E-1,1.0136017E-2,-3.2724403E-2,2.4025412E0,2.8925344E-2,5.295908E-2,1.4377457E-2,-3.259164E-2,1.3630739E-2,-2.1394959E-2,1.7774744E-2,5.1741578E-2,-1.8838305E-2,4.76356E-2,-9.982702E-3,-2.563355E-2,4.680213E-2,-0E0,-3.2965127E-2],"split_indices":[4,7,12,12,12,15,9,16,16,0,7,9,10,5,0,13,0,18,0,13,0,16,13,0,0,10,0,0,0,0,0,0,0,0,0,0,0,0,0,0,0],"split_type":[0,0,0,0,0,0,0,0,0,0,0,0,0,0,0,0,0,0,0,0,0,0,0,0,0,0,0,0,0,0,0,0,0,0,0,0,0,0,0,0,0],"sum_hessian":[9.5876184E2,4.265461E2,5.3221576E2,3.7804605E2,4.8500065E1,4.038276E2,1.2838815E2,3.6575278E2,1.2293257E1,3.310738E0,4.5189327E1,3.714761E2,3.2351505E1,1.18203995E2,1.018416E1,3.6329254E2,2.4602427E0,3.5529532E0,8.740303E0,4.244749E1,2.7418363E0,3.114072E2,6.0068897E1,1.7534581E0,3.0598045E1,1.1583549E2,2.3685095E0,8.758731E0,1.4254298E0,3.616787E2,1.6138401E0,2.2233598E0,1.3295934E0,4.088989E1,1.5575999E0,2.8835553E2,2.3051683E1,4.1648224E1,1.8420673E1,2.880569E0,1.1295492E2],"tree_param":{"num_deleted":"0","num_feature":"23","num_nodes":"41","size_leaf_vector":"1"}},{"base_weights":[3.1298746E-3,-4.6060643E-1,1.0531883E0,-5.356868E-1,1.0467253E0,1.2119343E0,-3.7226957E-1,-5.675884E-1,1.1073537E0,2.0590025E-1,7.0592076E-2,5.5038756E-1,1.3609065E0,-5.2673036E-1,6.231148E-1,-5.809522E-1,8.8634026E-1,6.7599244E-2,-1.4419836E-2,-3.3719772E-1,5.477458E-2,-8.1777856E-2,6.474582E-2,1.3840928E0,1.4633552E-2,-2.8494332E-2,5.6240438E-3,1.1515061E-3,4.5954596E-2,-2.953887E-2,7.0656785E-3,4.0884027E-3,5.3619068E-2,-2.3500709E-2,5.9156697E-3,-2.1175263E-2,5.2525062E-2,6.977707E-2,-0E0,-1.7883768E-2,2.7502462E-2],"categories":[],"categories_nodes":[],"categories_segments":[],"categories_sizes":[],"default_left":[0,0,0,0,0,0,0,0,0,0,0,0,0,0,0,0,0,0,0,0,0,0,0,0,0,0,0,0,0,0,0,0,0,0,0,0,0,0,0,0,0],"id":20,"left_children":[1,3,5,7,9,11,13,15,17,19,-1,21,23,25,27,29,31,-1,-1,33,-1,35,-1,37,39,-1,-1,-1,-1,-1,-1,-1,-1,-1,-1,-1,-1,-1,-1,-1,-1],"loss_changes":[3.6111447E2,5.8709023E1,5.1948303E1,2.628891E1,7.122837E0,1.9236969E1,3.9268937E0,9.848938E0,3.7820024E0,4.660332E0,0E0,1.878676E1,5.031006E0,6.8763876E-1,5.104809E-1,3.5222626E0,5.030172E-1,0E0,0E0,4.605564E-1,0E0,8.969525E0,0E0,2.4978638E0,9.9328E-1,0E0,0E0,0E0,0E0,0E0,0E0,0E0,0E0,0E0,0E0,0E0,0E0,0E0,0E0,0E0,0E0],"parents":[2147483647,0,0,1,1,2,2,3,3,4,4,5,5,6,6,7,7,8,8,9,9,11,11,12,12,13,13,14,14,15,15,16,16,19,19,21,21,23,23,24,24],"right_children":[2,4,6,8,10,12,14,16,18,20,-1,22,24,26,28,30,32,-1,-1,34,-1,36,-1,38,40,-1,-1,-1,-1,-1,-1,-1,-1,-1,-1,-1,-1,-1,-1,-1,-1],"split_conditions":[2.1646205E2,1.0876157E2,1.4590527E1,4.6775274E0,3.1057987E1,7.961222E1,1.8969166E1,2.4639845E1,1.0808201E1,1.7818216E0,7.0592076E-2,1.812824E0,5.6469414E1,9.450139E1,1.3144432E2,1.6254588E2,1.3280962E2,6.7599244E-2,-1.4419836E-2,1.3961874E2,5.477458E-2,2.789985E2,6.474582E-2,3.538536E3,3.3682778E0,-2.8494332E-2,5.6240438E-3,1.1515061E-3,4.5954596E-2,-2.953887E-2,7.0656785E-3,4.0884027E-3,5.3619068E-2,-2.3500709E-2,5.9156697E-3,-2.1175263E-2,5.2525062E-2,6.977707E-2,-0E0,-1.7883768E-2,2.7502462E-2],"split_indices":[12,4,9,10,1,4,16,16,9,15,0,15,5,22,0,0,0,0,0,0,0,12,0,8,10,0,0,0,0,0,0,0,0,0,0,0,0,0,0,0,0],"split_type":[0,0,0,0,0,0,0,0,0,0,0,0,0,0,0,0,0,0,0,0,0,0,0,0,0,0,0,0,0,0,0,0,0,0,0,0,0,0,0,0,0],"sum_hessian":[7.3946594E2,5.1326105E2,2.2620486E2,4.8958572E2,2.3675356E1,2.0373581E2,2.246906E1,4.8096268E2,8.623056E0,7.724484E0,1.5950871E1,3.8432575E1,1.6530324E2,1.99453E1,2.5237617E0,4.7724524E2,3.7174106E0,7.4247355E0,1.1983211E0,5.112084E0,2.6124005E0,2.1193459E1,1.7239117E1,1.6240385E2,2.8993843E0,1.8932003E1,1.0132958E0,1.3012303E0,1.2225316E0,4.7115646E2,6.088776E0,1.0694388E0,2.6479716E0,4.1033397E0,1.008744E0,1.6828749E1,4.3647103E0,1.6101634E2,1.3875029E0,1.7958268E0,1.1035575E0],"tree_param":{"num_deleted":"0","num_feature":"23","num_nodes":"41","size_leaf_vector":"1"}},{"base_weights":[6.022868E-3,5.654436E-1,-7.5839597E-1,7.1044415E-1,-7.0184165E-1,-7.734315E-1,4.4691184E-1,7.555886E-1,-7.250543E-1,-1.5806025E-1,-3.9683685E-2,1.39836E-2,-7.786385E-1,-7.5322874E-3,3.3809002E-2,7.7843195E-1,-5.0400805E-1,-5.0501637E-3,-3.830639E-2,-6.0132277E-1,3.1489596E-2,-4.0060005E-1,-7.9238164E-1,3.9486717E-2,-2.5714938E-2,-3.6187124E-2,2.3569992E-2,-4.7678356E-3,-3.427173E-2,1.3875561E-2,-3.685963E-2,-1.5563853E-2,-3.970274E-2],"categories":[],"categories_nodes":[],"categories_segments":[],"categories_sizes":[],"default_left":[0,0,0,0,0,0,0,0,0,0,0,0,0,0,0,0,0,0,0,0,0,0,0,0,0,0,0,0,0,0,0,0,0],"id":21,"left_children":[1,3,5,7,9,11,13,15,17,19,-1,-1,21,-1,-1,23,25,-1,-1,27,-1,29,31,-1,-1,-1,-1,-1,-1,-1,-1,-1,-1],"loss_changes":[4.7757346E2,1.190148E2,8.92981E0,3.8092712E1,3.1076736E0,2.8257446E0,1.0265167E0,1.6596222E1,2.999878E-1,4.229743E0,0E0,0E0,1.9769287E0,0E0,0E0,8.508575E0,2.6261296E0,0E0,0E0,1.8233824E-1,0E0,4.490065E0,2.0751953E-3,0E0,0E0,0E0,0E0,0E0,0E0,0E0,0E0,0E0,0E0],"parents":[2147483647,0,0,1,1,2,2,3,3,4,4,5,5,6,6,7,7,8,8,9,9,12,12,15,15,16,16,19,19,21,21,22,22],"right_children":[2,4,6,8,10,12,14,16,18,20,-1,-1,22,-1,-1,24,26,-1,-1,28,-1,30,32,-1,-1,-1,-1,-1,-1,-1,-1,-1,-1],"split_conditions":[5.8790364E0,6.5280396E1,2.7146774E1,4.5344534E0,1.087767E0,1.1457267E0,5.8291634E1,1.772167E2,1.919923E2,1.8724804E1,-3.9683685E-2,1.39836E-2,3.1523895E-1,-7.5322874E-3,3.3809002E-2,5.895393E-1,2.4829758E1,-5.0501637E-3,-3.830639E-2,1E1,3.1489596E-2,6.806335E-2,6.2972034E1,3.9486717E-2,-2.5714938E-2,-3.6187124E-2,2.3569992E-2,-4.7678356E-3,-3.427173E-2,1.3875561E-2,-3.685963E-2,-1.5563853E-2,-3.970274E-2],"split_indices":[17,4,9,7,18,10,5,12,11,9,0,0,13,0,0,19,9,0,0,20,0,6,12,0,0,0,0,0,0,0,0,0,0],"split_type":[0,0,0,0,0,0,0,0,0,0,0,0,0,0,0,0,0,0,0,0,0,0,0,0,0,0,0,0,0,0,0,0,0],"sum_hessian":[1.1148291E3,6.4395667E2,4.708724E2,5.783062E2,6.565048E1,4.6550674E2,5.365647E0,5.612005E2,1.7105673E1,1.0035518E1,5.5614964E1,1.936516E0,4.6357022E2,1.4619701E0,3.9036765E0,5.5165735E2,9.543162E0,1.4202834E0,1.5685389E1,6.654972E0,3.3805451E0,1.7574238E1,4.45996E2,5.473384E2,4.3189645E0,8.082837E0,1.4603245E0,1.4222363E0,5.2327356E0,5.7893143E0,1.1784924E1,2.4010372E0,4.4359497E2],"tree_param":{"num_deleted":"0","num_feature":"23","num_nodes":"33","size_leaf_vector":"1"}},{"base_weights":[-9.955955E-4,-4.0512174E-1,3.659505E-1,-5.5945784E-1,7.505774E-1,6.830226E-1,-4.4002938E-1,-6.089769E-1,7.1410125E-1,8.5455716E-1,-3.4908283E-1,7.929591E-1,-4.3294087E-1,-5.507917E-1,8.319995E-1,-6.2528723E-1,4.0957462E-2,-2.2792913E-1,9.471453E-1,-9.931829E-2,9.661742E-1,-0E0,-2.3909103E-2,8.3874315E-1,-5.52973E-1,4.0513918E-1,-6.193384E-1,1.10293105E-1,-6.2685186E-1,5.0874025E-2,-1.7487818E-2,-3.172649E-2,2.9207781E-2,-1.839327E-2,-0E0,4.983875E-2,1.4204777E-2,-2.5436545E-2,3.2191195E-2,5.0725367E-2,1.1610198E-3,1.2078688E-2,4.7584668E-2,-0E0,-3.133808E-2,-2.2358904E-2,4.664294E-2,-0E0,-3.260752E-2,3.7906002E-2,-2.4053557E-2,1.736328E-2,-3.2105416E-2],"categories":[],"categories_nodes":[],"categories_segments":[],"categories_sizes":[],"default_left":[0,0,0,0,0,0,0,0,0,0,0,0,0,0,0,0,0,0,0,0,0,0,0,0,0,0,0,0,0,0,0,0,0,0,0,0,0,0,0,0,0,0,0,0,0,0,0,0,0,0,0,0,0],"id":22,"left_children":[1,3,5,7,9,11,13,15,17,19,21,23,25,27,29,31,-1,33,35,37,39,-1,-1,41,43,45,47,49,51,-1,-1,-1,-1,-1,-1,-1,-1,-1,-1,-1,-1,-1,-1,-1,-1,-1,-1,-1,-1,-1,-1,-1,-1],"loss_changes":[1.4040602E2,8.0790016E1,1.2710355E2,2.5540192E1,6.4602013E0,4.4118057E1,2.0237104E1,9.436478E0,3.6445007E0,5.4212837E0,2.7978343E-1,2.0518097E1,5.355084E0,6.6572304E0,2.9623632E0,4.626419E0,0E0,1.4741504E-1,1.2788773E-3,2.1295905E0,1.8887825E0,0E0,0E0,2.0881073E1,4.8246646E-1,3.356387E0,6.0204315E-1,5.804831E0,1.9893036E0,0E0,0E0,0E0,0E0,0E0,0E0,0E0,0E0,0E0,0E0,0E0,0E0,0E0,0E0,0E0,0E0,0E0,0E0,0E0,0E0,0E0,0E0,0E0,0E0],"parents":[2147483647,0,0,1,1,2,2,3,3,4,4,5,5,6,6,7,7,8,8,9,9,10,10,11,11,12,12,13,13,14,14,15,15,17,17,18,18,19,19,20,20,23,23,24,24,25,25,26,26,27,27,28,28],"right_children":[2,4,6,8,10,12,14,16,18,20,22,24,26,28,30,32,-1,34,36,38,40,-1,-1,42,44,46,48,50,52,-1,-1,-1,-1,-1,-1,-1,-1,-1,-1,-1,-1,-1,-1,-1,-1,-1,-1,-1,-1,-1,-1,-1,-1],"split_conditions":[5.152357E0,9.752282E0,2.1892824E0,6.6294685E1,2.4672093E2,2.2466484E1,1.4361625E1,3.4296362E0,1.7611254E1,1.1219294E2,2.2332705E1,1.212265E2,7.961222E1,1.7861037E2,6.383092E2,5.895393E-1,4.0957462E-2,1.0803423E2,3.6565106E0,2.3201176E1,2.4796124E0,-0E0,-2.3909103E-2,4.651331E1,1.09833855E2,9.223548E0,1.1076177E0,3.4136243E0,2.2052407E0,5.0874025E-2,-1.7487818E-2,-3.172649E-2,2.9207781E-2,-1.839327E-2,-0E0,4.983875E-2,1.4204777E-2,-2.5436545E-2,3.2191195E-2,5.0725367E-2,1.1610198E-3,1.2078688E-2,4.7584668E-2,-0E0,-3.133808E-2,-2.2358904E-2,4.664294E-2,-0E0,-3.260752E-2,3.7906002E-2,-2.4053557E-2,1.736328E-2,-3.2105416E-2],"split_indices":[17,16,15,4,12,16,9,10,1,12,1,4,4,12,11,19,0,0,10,1,15,0,0,4,2,9,18,10,16,0,0,0,0,0,0,0,0,0,0,0,0,0,0,0,0,0,0,0,0,0,0,0,0],"split_type":[0,0,0,0,0,0,0,0,0,0,0,0,0,0,0,0,0,0,0,0,0,0,0,0,0,0,0,0,0,0,0,0,0,0,0,0,0,0,0,0,0,0,0,0,0,0,0,0,0,0,0,0,0],"sum_hessian":[9.447919E2,4.496978E2,4.9509406E2,3.972501E2,5.2447723E1,3.555123E2,1.3958176E2,3.8296002E2,1.429006E1,4.8203598E1,4.2441273E0,3.2397565E2,3.1536642E1,1.2899509E2,1.0586674E1,3.7926077E2,3.6992779E0,2.7532957E0,1.1536764E1,4.967317E0,4.323628E1,1.2257842E0,3.018343E0,3.1375394E2,1.0221717E1,5.4267764E0,2.6109865E1,1.3127884E1,1.158672E2,9.343764E0,1.242909E0,3.769382E2,2.3225422E0,1.5302429E0,1.2230527E0,1.0124781E1,1.411984E0,3.4929657E0,1.4743516E0,4.0955105E1,2.2811756E0,5.0545124E1,2.632088E2,1.2585477E0,8.963169E0,2.0610738E0,3.3657024E0,1.2437898E0,2.4866076E1,6.210991E0,6.9168935E0,1.350064E0,1.14517136E2],"tree_param":{"num_deleted":"0","num_feature":"23","num_nodes":"53","size_leaf_vector":"1"}},{"base_weights":[2.8486215E-3,-4.557069E-1,9.8453945E-1,-5.53465E-1,8.574368E-1,1.1406012E0,-4.1802016E-1,-5.8057225E-1,7.318904E-1,1.1214421E0,-2.4671003E-2,5.550608E-1,1.27942E0,-2.8535593E-2,5.117113E-1,-5.884935E-1,3.6525052E-2,-2.1124909E-2,6.157734E-2,8.1926495E-2,1.333382E0,-1.23906635E-1,6.132105E-2,8.944218E-3,1.2911116E0,-1.3917784E-2,4.9490612E-2,-2.9526247E-2,1.9447716E-3,4.045471E-2,-2.1898976E-2,1.8099792E-2,6.875127E-2,-2.1363344E-2,5.311392E-2,1.8627662E-3,6.494799E-2],"categories":[],"categories_nodes":[],"categories_segments":[],"categories_sizes":[],"default_left":[0,0,0,0,0,0,0,0,0,0,0,0,0,0,0,0,0,0,0,0,0,0,0,0,0,0,0,0,0,0,0,0,0,0,0,0,0],"id":23,"left_children":[1,3,5,7,9,11,13,15,17,19,-1,21,23,-1,25,27,-1,-1,-1,29,31,33,-1,-1,35,-1,-1,-1,-1,-1,-1,-1,-1,-1,-1,-1,-1],"loss_changes":[3.3268994E2,6.509152E1,5.2060455E1,1.6764313E1,1.3174875E1,1.6347015E1,3.7378597E0,5.196335E0,6.404226E0,6.320137E0,0E0,1.9659023E1,1.8164978E0,0E0,1.8020811E0,6.620941E-1,0E0,0E0,0E0,2.7340784E0,3.2482147E-1,8.303505E0,0E0,0E0,1.4761963E0,0E0,0E0,0E0,0E0,0E0,0E0,0E0,0E0,0E0,0E0,0E0,0E0],"parents":[2147483647,0,0,1,1,2,2,3,3,4,4,5,5,6,6,7,7,8,8,9,9,11,11,12,12,14,14,15,15,19,19,20,20,21,21,24,24],"right_children":[2,4,6,8,10,12,14,16,18,20,-1,22,24,-1,26,28,-1,-1,-1,30,32,34,-1,-1,36,-1,-1,-1,-1,-1,-1,-1,-1,-1,-1,-1,-1],"split_conditions":[2.1646205E2,8.220969E0,1.4770389E1,2.276679E1,1.3552472E1,8.250221E1,1.8969166E1,3.0416698E0,9.788903E0,1.1615552E-1,-2.4671003E-2,2.0948958E0,2.5316987E0,-2.8535593E-2,1.2437524E2,4.011444E1,3.6525052E-2,-2.1124909E-2,6.157734E-2,2.2556792E3,3.0471207E2,1.623988E1,6.132105E-2,8.944218E-3,1.9624545E2,-1.3917784E-2,4.9490612E-2,-2.9526247E-2,1.9447716E-3,4.045471E-2,-2.1898976E-2,1.8099792E-2,6.875127E-2,-2.1363344E-2,5.311392E-2,1.8627662E-3,6.494799E-2],"split_indices":[12,7,9,16,9,4,16,15,17,6,0,15,7,0,0,14,0,0,0,8,11,17,0,0,11,0,0,0,0,0,0,0,0,0,0,0,0],"split_type":[0,0,0,0,0,0,0,0,0,0,0,0,0,0,0,0,0,0,0,0,0,0,0,0,0,0,0,0,0,0,0,0,0,0,0,0,0],"sum_hessian":[7.3693445E2,5.0259998E2,2.3433447E2,4.6838528E2,3.421468E1,2.1110324E2,2.3231232E1,4.593246E2,9.060711E0,2.882509E1,5.389589E0,4.155257E1,1.6955067E2,2.0378191E1,2.8530397E0,4.5718973E2,2.1348517E0,2.7232637E0,6.3374476E0,5.1963906E0,2.36287E1,2.0990604E1,2.0561966E1,2.0435548E0,1.6750713E2,1.1542528E0,1.698787E0,4.559316E2,1.2581019E0,2.0146732E0,3.1817172E0,1.4684868E0,2.2160213E1,1.7292297E1,3.6983075E0,1.1569552E0,1.6635016E2],"tree_param":{"num_deleted":"0","num_feature":"23","num_nodes":"37","size_leaf_vector":"1"}},{"base_weights":[1.0682646E-2,5.563622E-1,-7.230589E-1,7.0654327E-1,-6.148698E-1,-7.426992E-1,6.063528E-1,7.482068E-1,-3.744567E-2,2.1599516E-1,-7.466171E-1,-1.8547331E-1,-7.632819E-1,3.500637E-2,4.746299E-3,7.604529E-1,-5.1669806E-1,3.4577694E-2,-4.6885806E-1,-7.5987196E-1,-3.2372165E-3,4.6208167E-1,-6.266699E-1,-3.694345E-1,-7.74732E-1,3.8392395E-2,-2.9545052E-2,-4.5425533E-3,-3.0591166E-2,-4.9888473E-3,-2.8270656E-2,-3.4993223E-3,-3.8678292E-2,3.539614E-2,-2.0891046E-3,-1.9539474E-3,-3.4863364E-2,2.2907516E-2,-3.3161487E-2,-1.3076553E-2,-3.8832825E-2],"categories":[],"categories_nodes":[],"categories_segments":[],"categories_sizes":[],"default_left":[0,0,0,0,0,0,0,0,0,0,0,0,0,0,0,0,0,0,0,0,0,0,0,0,0,0,0,0,0,0,0,0,0,0,0,0,0,0,0,0,0],"id":24,"left_children":[1,3,5,7,9,11,13,15,-1,17,19,21,23,-1,-1,25,27,-1,29,31,-1,33,35,37,39,-1,-1,-1,-1,-1,-1,-1,-1,-1,-1,-1,-1,-1,-1,-1,-1],"loss_changes":[4.4101767E2,1.1157204E2,1.2728683E1,3.4549927E1,8.124449E0,5.0785675E0,2.0485592E-1,8.867035E0,0E0,3.7863765E0,4.3503952E-1,5.4491434E0,1.6124878E0,0E0,0E0,5.8751526E0,1.0697651E-1,0E0,4.9483895E-2,4.4030762E-1,0E0,1.0597384E0,3.646822E-1,3.9155273E0,1.20391846E-1,0E0,0E0,0E0,0E0,0E0,0E0,0E0,0E0,0E0,0E0,0E0,0E0,0E0,0E0,0E0,0E0],"parents":[2147483647,0,0,1,1,2,2,3,3,4,4,5,5,6,6,7,7,9,9,10,10,11,11,12,12,15,15,16,16,18,18,19,19,21,21,22,22,23,23,24,24],"right_children":[2,4,6,8,10,12,14,16,-1,18,20,22,24,-1,-1,26,28,-1,30,32,-1,34,36,38,40,-1,-1,-1,-1,-1,-1,-1,-1,-1,-1,-1,-1,-1,-1,-1,-1],"split_conditions":[5.7808046E0,9.632665E0,2.7146774E1,4.6070614E0,1.1219294E2,6.128001E0,2.609285E0,1.8627657E2,-3.744567E-2,4.0211263E-1,7.610117E1,1.7913689E1,9.289241E1,3.500637E-2,4.746299E-3,3.1272022E1,2.17691E0,3.4577694E-2,4.5344534E0,2.5736165E-1,-3.2372165E-3,1.9466101E0,2.7803955E0,2.2262263E0,1.7176073E2,3.8392395E-2,-2.9545052E-2,-4.5425533E-3,-3.0591166E-2,-4.9888473E-3,-2.8270656E-2,-3.4993223E-3,-3.8678292E-2,3.539614E-2,-2.0891046E-3,-1.9539474E-3,-3.4863364E-2,2.2907516E-2,-3.3161487E-2,-1.3076553E-2,-3.8832825E-2],"split_indices":[17,16,9,7,12,17,7,12,0,13,5,1,12,0,0,1,10,0,7,13,0,10,7,7,11,0,0,0,0,0,0,0,0,0,0,0,0,0,0,0,0],"split_type":[0,0,0,0,0,0,0,0,0,0,0,0,0,0,0,0,0,0,0,0,0,0,0,0,0,0,0,0,0,0,0,0,0,0,0,0,0,0,0,0,0],"sum_hessian":[1.0995133E3,6.307821E2,4.6873117E2,5.595199E2,7.12622E1,4.6241614E2,6.3150525E0,5.4448816E2,1.5031751E1,9.56185E0,6.170035E1,1.7001854E1,4.4541428E2,4.8595176E0,1.4555349E0,5.3974054E2,4.74761E0,5.7236257E0,3.8382242E0,6.0267765E1,1.4325895E0,6.778658E0,1.0223196E1,1.3769899E1,4.3164438E2,5.37306E2,2.4344978E0,1.4158025E0,3.3318074E0,1.432303E0,2.4059215E0,1.434062E0,5.8833702E1,4.4170194E0,2.361638E0,1.4151084E0,8.808087E0,3.3718953E0,1.0398005E1,2.3182027E0,4.2932617E2],"tree_param":{"num_deleted":"0","num_feature":"23","num_nodes":"41","size_leaf_vector":"1"}},{"base_weights":[1.2978746E-3,-3.9182797E-1,3.4328905E-1,-5.551034E-1,6.73773E-1,6.49349E-1,-4.4845977E-1,-6.0214955E-1,8.144448E-1,7.5987154E-1,-2.5749534E-2,7.723711E-1,-3.7401217E-1,-5.733127E-1,7.7487177E-1,-6.178692E-1,4.0325888E-2,-0E0,9.0157264E-1,1.7732644E-1,9.569736E-1,8.168202E-1,-3.9661273E-1,5.401929E-1,-6.0025513E-1,-3.6668267E-2,-6.284217E-1,4.6472088E-2,-1.8002482E-2,-3.1348903E-2,1.7467981E-2,4.765008E-2,1.3330226E-2,-2.7013207E-2,3.6285426E-2,5.158739E-2,-1.9528698E-2,4.2963937E-2,-2.5810754E-2,-3.0163726E-2,3.3192746E-2,4.5674648E-2,-2.1006033E-2,1.6252635E-2,-3.2696422E-2,2.918611E-2,-2.919115E-2,-1.1936523E-2,-3.255778E-2],"categories":[],"categories_nodes":[],"categories_segments":[],"categories_sizes":[],"default_left":[0,0,0,0,0,0,0,0,0,0,0,0,0,0,0,0,0,0,0,0,0,0,0,0,0,0,0,0,0,0,0,0,0,0,0,0,0,0,0,0,0,0,0,0,0,0,0,0,0],"id":25,"left_children":[1,3,5,7,9,11,13,15,17,19,-1,21,23,25,27,29,-1,-1,31,33,35,37,39,41,43,45,47,-1,-1,-1,-1,-1,-1,-1,-1,-1,-1,-1,-1,-1,-1,-1,-1,-1,-1,-1,-1,-1,-1],"loss_changes":[1.2830367E2,7.7585976E1,1.2401767E2,2.5308144E1,6.489588E0,4.6743866E1,2.223858E1,8.746826E0,9.306412E-1,6.1258736E0,0E0,1.7488342E1,8.634706E0,3.762352E0,2.7734632E0,3.5054474E0,0E0,0E0,1.19867325E-2,6.4970407E0,4.6336403E0,1.8468704E1,3.1693304E0,3.4457352E0,1.8717976E0,4.8760495E0,7.999382E-1,0E0,0E0,0E0,0E0,0E0,0E0,0E0,0E0,0E0,0E0,0E0,0E0,0E0,0E0,0E0,0E0,0E0,0E0,0E0,0E0,0E0,0E0],"parents":[2147483647,0,0,1,1,2,2,3,3,4,4,5,5,6,6,7,7,8,8,9,9,11,11,12,12,13,13,14,14,15,15,18,18,19,19,20,20,21,21,22,22,23,23,24,24,25,25,26,26],"right_children":[2,4,6,8,10,12,14,16,18,20,-1,22,24,26,28,30,-1,-1,32,34,36,38,40,42,44,46,48,-1,-1,-1,-1,-1,-1,-1,-1,-1,-1,-1,-1,-1,-1,-1,-1,-1,-1,-1,-1,-1,-1],"split_conditions":[5.152357E0,5.1870936E-1,2.2091618E0,4.482871E0,6.47096E2,1.4366883E1,1.4361625E1,1.8627657E2,1.0715493E2,1.11892544E-1,-2.5749534E-2,2.7146774E1,1.6790783E0,1.7861037E2,2.4330864E0,2.6682425E1,4.0325888E-2,-0E0,8.481915E1,6.635733E-2,2.599411E0,3.0521854E2,9.306054E-2,1.2601244E-1,1.4006165E2,3.4136243E0,2.799696E0,4.6472088E-2,-1.8002482E-2,-3.1348903E-2,1.7467981E-2,4.765008E-2,1.3330226E-2,-2.7013207E-2,3.6285426E-2,5.158739E-2,-1.9528698E-2,4.2963937E-2,-2.5810754E-2,-3.0163726E-2,3.3192746E-2,4.5674648E-2,-2.1006033E-2,1.6252635E-2,-3.2696422E-2,2.918611E-2,-2.919115E-2,-1.1936523E-2,-3.255778E-2],"split_indices":[17,19,15,7,11,17,9,12,12,15,0,9,18,12,18,1,0,0,22,6,15,12,6,6,12,10,10,0,0,0,0,0,0,0,0,0,0,0,0,0,0,0,0,0,0,0,0,0,0],"split_type":[0,0,0,0,0,0,0,0,0,0,0,0,0,0,0,0,0,0,0,0,0,0,0,0,0,0,0,0,0,0,0,0,0,0,0,0,0,0,0,0,0,0,0,0,0,0,0,0,0],"sum_hessian":[9.5235236E2,4.4284958E2,5.0950278E2,3.8450687E2,5.83427E1,3.6767844E2,1.4182434E2,3.7234943E2,1.215744E1,5.4817356E1,3.5253448E0,3.2852786E2,3.915059E1,1.2924657E2,1.257778E1,3.6886554E2,3.4838843E0,1.27525E0,1.0882191E1,1.4466859E1,4.03505E1,3.168662E2,1.1661638E1,7.4037533E0,3.1746838E1,1.23606E1,1.1688596E2,1.13069935E1,1.2707859E0,3.658751E2,2.99044E0,9.457807E0,1.4243836E0,6.194039E0,8.27282E0,3.8521534E1,1.8289644E0,3.0750238E2,9.363841E0,1.0199418E1,1.4622202E0,5.441415E0,1.9623383E0,1.3611889E0,3.0385649E1,5.6756635E0,6.684937E0,7.3194695E0,1.0956649E2],"tree_param":{"num_deleted":"0","num_feature":"23","num_nodes":"49","size_leaf_vector":"1"}},{"base_weights":[1.795336E-2,-4.3718773E-1,9.548655E-1,-5.1917684E-1,9.893496E-1,1.0883431E0,-3.9592674E-1,-5.496519E-1,1.0244682E0,1.1373302E0,-1.9376373E-2,1.1463503E0,-2.4853845E-1,-5.2037007E-1,4.2117752E-2,-5.6191117E-1,5.4684073E-2,5.6742013E-2,3.0322035E-3,-1.3653393E-2,1.2221186E0,4.1663578E-1,1.2087066E0,-2.6274815E-2,3.987724E-2,-2.8192822E-2,5.245776E-3,-2.881561E-2,3.1248895E-2,6.333824E-2,4.437837E-3,-2.0862816E-2,4.8780765E-2,6.9683515E-3,6.097445E-2],"categories":[],"categories_nodes":[],"categories_segments":[],"categories_sizes":[],"default_left":[0,0,0,0,0,0,0,0,0,0,0,0,0,0,0,0,0,0,0,0,0,0,0,0,0,0,0,0,0,0,0,0,0,0,0],"id":26,"left_children":[1,3,5,7,9,11,13,15,17,19,-1,21,23,25,-1,27,-1,-1,-1,-1,29,31,33,-1,-1,-1,-1,-1,-1,-1,-1,-1,-1,-1,-1],"loss_changes":[3.0696603E2,5.7118515E1,4.294066E1,2.209716E1,5.9362087E0,1.7013046E1,3.7706442E0,9.639069E0,7.8684616E-1,3.339508E0,0E0,8.701965E0,3.1942182E0,6.6333246E-1,0E0,8.01239E0,0E0,0E0,0E0,0E0,9.2647934E-1,8.788167E0,1.8735657E0,0E0,0E0,0E0,0E0,0E0,0E0,0E0,0E0,0E0,0E0,0E0,0E0],"parents":[2147483647,0,0,1,1,2,2,3,3,4,4,5,5,6,6,7,7,8,8,9,9,11,11,12,12,13,13,15,15,20,20,21,21,22,22],"right_children":[2,4,6,8,10,12,14,16,18,20,-1,22,24,26,-1,28,-1,-1,-1,-1,30,32,34,-1,-1,-1,-1,-1,-1,-1,-1,-1,-1,-1,-1],"split_conditions":[2.1946674E2,1.0876157E2,1.4770389E1,2.4639845E1,1.3552472E1,5.5231358E1,2.2070946E1,1.1629326E0,1.1116319E1,7.9474755E-2,-1.9376373E-2,2.829296E0,1.765752E-1,1.8092121E-1,4.2117752E-2,7.708126E-1,5.4684073E-2,5.6742013E-2,3.0322035E-3,-1.3653393E-2,3.1606445E3,8.7557846E1,3.1835145E-1,-2.6274815E-2,3.987724E-2,-2.8192822E-2,5.245776E-3,-2.881561E-2,3.1248895E-2,6.333824E-2,4.437837E-3,-2.0862816E-2,4.8780765E-2,6.9683515E-3,6.097445E-2],"split_indices":[12,4,9,16,9,5,16,19,9,6,0,10,6,6,0,13,0,0,0,0,8,4,13,0,0,0,0,0,0,0,0,0,0,0,0],"split_type":[0,0,0,0,0,0,0,0,0,0,0,0,0,0,0,0,0,0,0,0,0,0,0,0,0,0,0,0,0,0,0,0,0,0,0],"sum_hessian":[7.177553E2,4.8336755E2,2.3438773E2,4.577641E2,2.560347E1,2.1355388E2,2.0833853E1,4.495967E2,8.16737E0,2.3341444E1,2.2620265E0,2.0488141E2,8.672465E0,1.953152E1,1.3023331E0,4.4698117E2,2.6155453E0,7.0758886E0,1.0914819E0,1.1308333E0,2.2210611E1,1.6860415E1,1.88021E2,7.326082E0,1.3463835E0,1.850288E1,1.0286406E0,4.422143E2,4.766875E0,2.1170702E1,1.0399094E0,6.7962823E0,1.0064132E1,2.1085265E0,1.8591248E2],"tree_param":{"num_deleted":"0","num_feature":"23","num_nodes":"35","size_leaf_vector":"1"}},{"base_weights":[-6.3620834E-4,5.403513E-1,-7.160213E-1,7.040507E-1,-6.050106E-1,-7.29981E-1,5.2200896E-1,7.362451E-1,-6.6321206E-1,9.081711E-2,-7.241261E-1,-2.6479316E-1,-7.512984E-1,4.8222994E-3,3.0871896E-2,7.4865294E-1,-3.209553E-2,-3.5888337E-2,-3.7877762E-3,3.573477E-2,-3.2132868E-2,-3.7867896E-2,-3.6508758E-2,5.695006E-1,-3.552612E-2,-3.6670637E-1,-3.7917156E-2,3.765385E-2,-2.347832E-2,2.2749161E-2,-2.3968866E-2,3.6542084E-2,-4.3895505E-3,2.7788619E-2,-3.325114E-2],"categories":[],"categories_nodes":[],"categories_segments":[],"categories_sizes":[],"default_left":[0,0,0,0,0,0,0,0,0,0,0,0,0,0,0,0,0,0,0,0,0,0,0,0,0,0,0,0,0,0,0,0,0,0,0],"id":27,"left_children":[1,3,5,7,9,11,13,15,17,19,21,23,25,-1,-1,27,-1,-1,-1,-1,-1,-1,29,31,-1,33,-1,-1,-1,-1,-1,-1,-1,-1,-1],"loss_changes":[4.2576474E2,1.17866486E2,8.589752E0,2.464087E1,6.6588974E0,4.350174E0,1.04025364E-1,9.664642E0,2.8525925E-1,6.086294E0,1.435421E0,8.71122E0,8.223114E-1,0E0,0E0,3.2502747E0,0E0,0E0,0E0,0E0,0E0,0E0,1.156785E0,1.0025215E0,0E0,3.199711E0,0E0,0E0,0E0,0E0,0E0,0E0,0E0,0E0,0E0],"parents":[2147483647,0,0,1,1,2,2,3,3,4,4,5,5,6,6,7,7,8,8,9,9,10,10,11,11,12,12,15,15,22,22,23,23,25,25],"right_children":[2,4,6,8,10,12,14,16,18,20,22,24,26,-1,-1,28,-1,-1,-1,-1,-1,-1,30,32,-1,34,-1,-1,-1,-1,-1,-1,-1,-1,-1],"split_conditions":[5.7808046E0,9.632665E0,3.0111395E1,4.5344534E0,2.474042E0,3.0826017E-1,2.110258E3,1.9737004E0,2.1201895E1,1.0824834E1,2.4373491E1,7.6323934E0,2.1533047E2,4.8222994E-3,3.0871896E-2,3.1272022E1,-3.209553E-2,-3.5888337E-2,-3.7877762E-3,3.573477E-2,-3.2132868E-2,-3.7867896E-2,6.2539205E-2,2.5506725E0,-3.552612E-2,4.4020566E-1,-3.7917156E-2,3.765385E-2,-2.347832E-2,2.2749161E-2,-2.3968866E-2,3.6542084E-2,-4.3895505E-3,2.7788619E-2,-3.325114E-2],"split_indices":[17,16,9,7,7,19,8,18,9,16,9,16,11,0,0,1,0,0,0,0,0,0,6,10,0,19,0,0,0,0,0,0,0,0,0],"split_type":[0,0,0,0,0,0,0,0,0,0,0,0,0,0,0,0,0,0,0,0,0,0,0,0,0,0,0,0,0,0,0,0,0,0,0],"sum_hessian":[1.0980814E3,6.25313E2,4.7276837E2,5.4753046E2,7.7782524E1,4.6798267E2,4.7857003E0,5.35457E2,1.2073522E1,1.1281035E1,6.650149E1,2.1299442E1,4.4668323E2,1.4368153E0,3.3488848E0,5.3120374E2,4.2532086E0,1.0688847E1,1.3846753E0,6.183456E0,5.097579E0,6.3200237E1,3.3012483E0,7.2420673E0,1.4057376E1,9.244481E0,4.3743875E2,5.2974384E2,1.4599094E0,1.4447362E0,1.8565121E0,5.8470674E0,1.3949996E0,1.9661977E0,7.2782836E0],"tree_param":{"num_deleted":"0","num_feature":"23","num_nodes":"35","size_leaf_vector":"1"}},{"base_weights":[-2.6318887E-3,-4.1208383E-1,2.917689E-1,-5.626205E-1,6.80123E-1,5.3234005E-1,-4.7686496E-1,-6.0586625E-1,6.6548365E-1,7.782326E-1,-3.2811105E-1,6.2953895E-1,-4.9461582E-1,-5.7601017E-1,7.77703E-1,-6.1818135E-1,3.4824252E-2,-1.4907208E-2,7.982097E-1,-2.7584115E-1,8.749999E-1,-0E0,-2.2874177E-2,7.550124E-1,-5.9072867E-2,-5.626623E-1,3.0578336E-2,-6.107215E-1,2.9266713E-2,4.5764577E-2,-2.7469484E-4,-3.1425826E-2,-7.223859E-3,4.433189E-2,-0E0,-2.0900577E-2,5.7230674E-4,4.6001606E-2,-1.5636686E-2,4.1276712E-2,-1.8501727E-2,-2.3013454E-2,4.2695146E-2,-1.3797645E-3,-3.1784877E-2,1.5877245E-2,-3.125591E-2],"categories":[],"categories_nodes":[],"categories_segments":[],"categories_sizes":[],"default_left":[0,0,0,0,0,0,0,0,0,0,0,0,0,0,0,0,0,0,0,0,0,0,0,0,0,0,0,0,0,0,0,0,0,0,0,0,0,0,0,0,0,0,0,0,0,0,0],"id":28,"left_children":[1,3,5,7,9,11,13,15,17,19,21,23,25,27,29,31,-1,-1,33,35,37,-1,-1,39,41,43,-1,45,-1,-1,-1,-1,-1,-1,-1,-1,-1,-1,-1,-1,-1,-1,-1,-1,-1,-1,-1],"loss_changes":[1.1206004E2,6.431821E1,1.0022175E2,1.8584755E1,4.997427E0,4.1480507E1,1.6509977E1,5.737961E0,1.8287163E0,4.754669E0,2.3806101E-1,3.2703674E1,3.0580626E0,5.216511E0,1.154316E0,1.4421463E0,0E0,0E0,7.104206E-1,2.2289065E-1,2.504818E0,0E0,0E0,2.5679916E1,2.1941982E1,1.2695503E0,0E0,1.8001785E0,0E0,0E0,0E0,0E0,0E0,0E0,0E0,0E0,0E0,0E0,0E0,0E0,0E0,0E0,0E0,0E0,0E0,0E0,0E0],"parents":[2147483647,0,0,1,1,2,2,3,3,4,4,5,5,6,6,7,7,8,8,9,9,10,10,11,11,12,12,13,13,14,14,15,15,18,18,19,19,20,20,23,23,24,24,25,25,27,27],"right_children":[2,4,6,8,10,12,14,16,18,20,22,24,26,28,30,32,-1,-1,34,36,38,-1,-1,40,42,44,-1,46,-1,-1,-1,-1,-1,-1,-1,-1,-1,-1,-1,-1,-1,-1,-1,-1,-1,-1,-1],"split_conditions":[5.0617847E1,9.632665E0,2.5327951E2,1.7449065E2,2.5680807E0,2.6792479E0,1.5036425E1,8.9334357E-1,1.2096759E1,1.00038376E2,1.1827912E2,2.1515028E1,1.5486539E1,5.7248486E1,7.274929E-1,1.5801926E2,3.4824252E-2,-1.4907208E-2,6.437813E1,1.7982206E1,2.3863842E1,-0E0,-2.2874177E-2,1.4766147E1,4.7043228E-1,2.53303E1,3.0578336E-2,4.205342E0,2.9266713E-2,4.5764577E-2,-2.7469484E-4,-3.1425826E-2,-7.223859E-3,4.433189E-2,-0E0,-2.0900577E-2,5.7230674E-4,4.6001606E-2,-1.5636686E-2,4.1276712E-2,-1.8501727E-2,-2.3013454E-2,4.2695146E-2,-1.3797645E-3,-3.1784877E-2,1.5877245E-2,-3.125591E-2],"split_indices":[4,16,12,12,15,15,9,15,1,12,3,9,9,5,19,12,0,0,5,1,16,0,0,17,19,1,0,16,0,0,0,0,0,0,0,0,0,0,0,0,0,0,0,0,0,0,0],"split_type":[0,0,0,0,0,0,0,0,0,0,0,0,0,0,0,0,0,0,0,0,0,0,0,0,0,0,0,0,0,0,0,0,0,0,0,0,0,0,0,0,0,0,0,0,0,0,0],"sum_hessian":[9.2753E2,3.879333E2,5.3959674E2,3.4144855E2,4.6484726E1,4.113026E2,1.2829416E2,3.3040207E2,1.1046493E1,4.266078E1,3.8239436E0,3.7618222E2,3.5120384E1,1.1947309E2,8.821068E0,3.279035E2,2.4985642E0,1.0952116E0,9.951281E0,3.3445938E0,3.931619E1,1.2051021E0,2.6188414E0,3.1824323E2,5.7939007E1,3.3633198E1,1.4871881E0,1.1654977E2,2.9233174E0,7.4681225E0,1.3529453E0,3.2037573E2,7.5277753E0,8.779476E0,1.1718047E0,2.1658363E0,1.1787574E0,3.8178265E1,1.1379235E0,2.9980548E2,1.8437733E1,4.0671707E1,1.72673E1,4.369393E0,2.9263805E1,1.3523116E0,1.1519746E2],"tree_param":{"num_deleted":"0","num_feature":"23","num_nodes":"47","size_leaf_vector":"1"}},{"base_weights":[-8.944042E-3,-4.502217E-1,8.9086485E-1,-5.2698916E-1,9.6306235E-1,1.0259535E0,-8.7729536E-2,-5.5600286E-1,9.247808E-1,8.932119E-2,5.8540475E-2,1.9892577E-2,1.0910244E0,-4.8200238E-1,7.5663465E-1,-5.6827426E-1,4.6436377E-2,-1.3587676E-2,5.6910414E-2,-2.1377403E-2,4.0895667E-2,-2.6529357E-2,4.98761E-2,-4.145746E-2,1.1127518E0,-2.8291285E-2,2.0841887E-2,-1.5676368E-2,9.933456E-1,-2.892047E-2,3.466061E-2,-2.0089589E-2,2.4421543E-2,3.3900972E-2,5.8249902E-2,3.6530457E-3,5.5235118E-2],"categories":[],"categories_nodes":[],"categories_segments":[],"categories_sizes":[],"default_left":[0,0,0,0,0,0,0,0,0,0,0,0,0,0,0,0,0,0,0,0,0,0,0,0,0,0,0,0,0,0,0,0,0,0,0,0,0],"id":29,"left_children":[1,3,5,7,9,11,13,15,17,19,-1,21,23,25,27,29,-1,-1,-1,-1,-1,-1,-1,31,33,-1,-1,-1,35,-1,-1,-1,-1,-1,-1,-1,-1],"loss_changes":[2.8186115E2,5.2152756E1,3.1057251E1,1.9540863E1,4.2767944E0,1.3312561E1,1.00448065E1,8.588806E0,2.739191E0,2.627571E0,0E0,7.8889785E0,4.89711E0,1.8005357E0,2.8088284E0,6.0336456E0,0E0,0E0,0E0,0E0,0E0,0E0,0E0,1.0480738E0,3.3251038E0,0E0,0E0,0E0,6.3873863E-1,0E0,0E0,0E0,0E0,0E0,0E0,0E0,0E0],"parents":[2147483647,0,0,1,1,2,2,3,3,4,4,5,5,6,6,7,7,8,8,9,9,11,11,12,12,13,13,14,14,15,15,23,23,24,24,28,28],"right_children":[2,4,6,8,10,12,14,16,18,20,-1,22,24,26,28,30,-1,-1,-1,-1,-1,-1,-1,32,34,-1,-1,-1,36,-1,-1,-1,-1,-1,-1,-1,-1],"split_conditions":[2.1646205E2,1.0952667E2,5.2065903E1,4.6775274E0,7.010822E0,2.5452995E0,1.5969866E1,1.950157E-1,1.308359E1,1.2905421E1,5.8540475E-2,2.1409354E0,2.7803955E0,4.3802576E0,4.8712096E-1,1.5585915E1,4.6436377E-2,-1.3587676E-2,5.6910414E-2,-2.1377403E-2,4.0895667E-2,-2.6529357E-2,4.98761E-2,8.5736176E1,1.1306938E1,-2.8291285E-2,2.0841887E-2,-1.5676368E-2,4.588749E1,-2.892047E-2,3.466061E-2,-2.0089589E-2,2.4421543E-2,3.3900972E-2,5.8249902E-2,3.6530457E-3,5.5235118E-2],"split_indices":[12,4,5,10,7,10,16,6,16,17,0,15,7,10,13,17,0,0,0,0,0,0,0,4,16,0,0,0,22,0,0,0,0,0,0,0,0],"split_type":[0,0,0,0,0,0,0,0,0,0,0,0,0,0,0,0,0,0,0,0,0,0,0,0,0,0,0,0,0,0,0,0,0,0,0,0,0],"sum_hessian":[7.079613E2,4.7542007E2,2.3254123E2,4.5158835E2,2.3831728E1,2.0438148E2,2.8159754E1,4.4341263E2,8.175719E0,4.9450755E0,1.8886654E1,1.2588787E1,1.917927E2,1.9569454E1,8.590301E0,4.4045682E2,2.955803E0,1.1252766E0,7.0504427E0,3.0542793E0,1.890796E0,8.28096E0,4.307827E0,3.5066717E0,1.8828603E2,1.8340792E1,1.228663E0,1.4206448E0,7.1696563E0,4.3756207E2,2.8947296E0,2.3435047E0,1.1631671E0,2.1905481E1,1.6638054E2,1.0495962E0,6.12006E0],"tree_param":{"num_deleted":"0","num_feature":"23","num_nodes":"37","size_leaf_vector":"1"}},{"base_weights":[-3.701492E-3,5.3888303E-1,-6.991149E-1,6.816765E-1,-5.990684E-1,-2.29414E-1,-7.333183E-1,7.170439E-1,-6.5647584E-1,1.3331975E-1,-7.2701997E-1,5.862509E-1,-6.817238E-1,-7.1384996E-2,-7.385834E-1,7.280793E-1,-3.0768696E-2,-3.5270512E-2,-3.6540914E-3,3.4731563E-2,-3.0155305E-2,-3.7648715E-3,-3.6988147E-2,3.773464E-2,-2.0209318E-2,-2.1107683E-3,-3.582987E-2,2.3967762E-2,-2.4773357E-2,-3.700383E-3,-3.7016924E-2,3.6752135E-2,-2.6682293E-2],"categories":[],"categories_nodes":[],"categories_segments":[],"categories_sizes":[],"default_left":[0,0,0,0,0,0,0,0,0,0,0,0,0,0,0,0,0,0,0,0,0,0,0,0,0,0,0,0,0,0,0,0,0],"id":30,"left_children":[1,3,5,7,9,11,13,15,17,19,21,23,25,27,29,31,-1,-1,-1,-1,-1,-1,-1,-1,-1,-1,-1,-1,-1,-1,-1,-1,-1],"loss_changes":[4.036646E2,9.804875E1,7.2691345E0,2.5768188E1,6.47645E0,1.2762398E1,1.3873596E0,8.122803E0,2.7625751E-1,4.875542E0,3.418522E-1,2.4092884E0,3.8630772E-1,1.3370911E0,3.68515E-1,4.958557E0,0E0,0E0,0E0,0E0,0E0,0E0,0E0,0E0,0E0,0E0,0E0,0E0,0E0,0E0,0E0,0E0,0E0],"parents":[2147483647,0,0,1,1,2,2,3,3,4,4,5,5,6,6,7,7,8,8,9,9,10,10,11,11,12,12,13,13,14,14,15,15],"right_children":[2,4,6,8,10,12,14,16,18,20,22,24,26,28,30,32,-1,-1,-1,-1,-1,-1,-1,-1,-1,-1,-1,-1,-1,-1,-1,-1,-1],"split_conditions":[5.7808046E0,9.752282E0,4.3395287E1,4.6070614E0,2.474042E0,7.5056987E0,5.4532194E0,7.203216E1,6.573075E1,1.0824834E1,2.2197518E-1,4.1456647E0,3.662207E-2,2.6551769E0,7.63461E-2,6.479766E-1,-3.0768696E-2,-3.5270512E-2,-3.6540914E-3,3.4731563E-2,-3.0155305E-2,-3.7648715E-3,-3.6988147E-2,3.773464E-2,-2.0209318E-2,-2.1107683E-3,-3.582987E-2,2.3967762E-2,-2.4773357E-2,-3.700383E-3,-3.7016924E-2,3.6752135E-2,-2.6682293E-2],"split_indices":[17,16,4,7,7,16,1,4,5,16,19,7,6,7,19,19,0,0,0,0,0,0,0,0,0,0,0,0,0,0,0,0,0],"split_type":[0,0,0,0,0,0,0,0,0,0,0,0,0,0,0,0,0,0,0,0,0,0,0,0,0,0,0,0,0,0,0,0,0],"sum_hessian":[1.0677778E3,5.998423E2,4.679355E2,5.333987E2,6.6443596E1,3.248354E1,4.3545193E2,5.20189E2,1.3209714E1,9.759161E0,5.6684433E1,1.1402972E1,2.1080566E1,3.7010593E0,4.317509E2,5.164403E2,3.7486768E0,1.1836337E1,1.3733767E0,5.6472855E0,4.1118755E0,1.3700707E0,5.531436E1,1.0035277E1,1.3676951E0,1.3527124E0,1.9727854E1,1.4508079E0,2.2502513E0,1.4009817E0,4.303499E2,5.1409973E2,2.3406014E0],"tree_param":{"num_deleted":"0","num_feature":"23","num_nodes":"33","size_leaf_vector":"1"}},{"base_weights":[8.931257E-3,-3.8492125E-1,3.2345626E-1,-5.320501E-1,6.9788474E-1,5.848143E-1,-4.4139296E-1,-5.759258E-1,4.37839E-2,8.31202E-1,-2.0974809E-1,6.64243E-1,-4.7716147E-1,-5.5071354E-1,6.744927E-1,-6.0294455E-1,3.7773855E-2,8.91632E-1,-1.6505256E-1,2.817673E-2,-2.6901111E-2,7.4545103E-1,-1.4040686E-1,2.2722735E-1,-3.267277E-2,-2.4593748E-2,-6.201965E-1,4.1790042E-2,-1.776829E-2,-3.0623173E-2,2.1725386E-2,4.661156E-2,-1.5188787E-3,-1.4778854E-2,-0E0,3.9673522E-2,-2.385382E-2,-2.499086E-2,4.0034287E-2,3.6167167E-2,-2.2869676E-2,3.188273E-2,-2.5307158E-2,-3.633814E-3,-3.1854317E-2],"categories":[],"categories_nodes":[],"categories_segments":[],"categories_sizes":[],"default_left":[0,0,0,0,0,0,0,0,0,0,0,0,0,0,0,0,0,0,0,0,0,0,0,0,0,0,0,0,0,0,0,0,0,0,0,0,0,0,0,0,0,0,0,0,0],"id":31,"left_children":[1,3,5,7,9,11,13,15,-1,17,19,21,23,25,27,29,-1,31,33,-1,-1,35,37,39,-1,41,43,-1,-1,-1,-1,-1,-1,-1,-1,-1,-1,-1,-1,-1,-1,-1,-1,-1,-1],"loss_changes":[1.1475688E2,6.586568E1,1.03263565E2,2.2874718E1,6.2311954E0,3.277089E1,1.642372E1,1.3116356E1,0E0,2.8383446E0,2.0896118E0,2.3576141E1,3.5753565E0,4.3279114E0,2.3581529E0,3.7008133E0,0E0,1.6629028E0,9.455556E-2,0E0,0E0,1.9530457E1,1.1725464E1,2.423849E0,0E0,5.180874E0,8.6569214E-1,0E0,0E0,0E0,0E0,0E0,0E0,0E0,0E0,0E0,0E0,0E0,0E0,0E0,0E0,0E0,0E0,0E0,0E0],"parents":[2147483647,0,0,1,1,2,2,3,3,4,4,5,5,6,6,7,7,9,9,10,10,11,11,12,12,13,13,14,14,15,15,17,17,18,18,21,21,22,22,23,23,25,25,26,26],"right_children":[2,4,6,8,10,12,14,16,-1,18,20,22,24,26,28,30,-1,32,34,-1,-1,36,38,40,-1,42,44,-1,-1,-1,-1,-1,-1,-1,-1,-1,-1,-1,-1,-1,-1,-1,-1,-1,-1],"split_conditions":[7.6659946E0,4.403453E0,2.2091618E0,7.203216E1,8.980006E0,9.533719E0,1.4361625E1,1.8627657E2,4.37839E-2,2.4056604E1,1.425318E2,2.3743979E1,1.3312447E1,1.9185744E2,1.4503935E2,2.9428556E1,3.7773855E-2,1.6076894E-1,3.6586956E1,2.817673E-2,-2.6901111E-2,2.4639845E1,5.313025E-1,9.439373E1,-3.267277E-2,1.609477E1,4.403453E0,4.1790042E-2,-1.776829E-2,-3.0623173E-2,2.1725386E-2,4.661156E-2,-1.5188787E-3,-1.4778854E-2,-0E0,3.9673522E-2,-2.385382E-2,-2.499086E-2,4.0034287E-2,3.6167167E-2,-2.2869676E-2,3.188273E-2,-2.5307158E-2,-3.633814E-3,-3.1854317E-2],"split_indices":[16,7,15,4,7,7,9,12,0,9,12,9,16,12,2,1,0,6,4,0,0,16,15,4,0,16,7,0,0,0,0,0,0,0,0,0,0,0,0,0,0,0,0,0,0],"split_type":[0,0,0,0,0,0,0,0,0,0,0,0,0,0,0,0,0,0,0,0,0,0,0,0,0,0,0,0,0,0,0,0,0,0,0,0,0,0,0,0,0,0,0,0,0],"sum_hessian":[9.2442615E2,4.102117E2,5.142144E2,3.6166992E2,4.8541767E1,3.8352542E2,1.3068904E2,3.513801E2,1.0289817E1,4.2494385E1,6.047384E0,3.572725E2,2.6252901E1,1.1957105E2,1.1117985E1,3.450011E2,6.379008E0,4.0257847E1,2.2365365E0,1.4978247E0,4.549559E0,3.2470047E2,3.2572044E1,5.0838895E0,2.1169012E1,1.4275007E1,1.0529604E2,9.85925E0,1.258735E0,3.4236584E2,2.635256E0,3.865319E1,1.6046584E0,1.0915093E0,1.1450273E0,3.1284503E2,1.1855431E1,2.3986555E1,8.585489E0,2.9996643E0,2.084225E0,5.786002E0,8.489005E0,3.4868171E0,1.0180923E2],"tree_param":{"num_deleted":"0","num_feature":"23","num_nodes":"45","size_leaf_vector":"1"}},{"base_weights":[2.3824254E-3,-4.4174555E-1,8.4393257E-1,-5.430331E-1,6.919745E-1,9.662574E-1,-4.7422084E-1,-5.660284E-1,5.9345496E-1,9.838416E-1,-2.543724E-2,1.0294E0,-2.9455972E-1,-2.8015802E-2,2.4874503E-2,-5.72478E-1,2.362947E-2,-2.0795713E-1,5.441718E-2,1.0772517E0,-1.7238347E-2,6.9247556E-1,1.099809E0,-2.6574358E-2,3.9035916E-2,-2.8831664E-2,6.0948515E-3,-1.842393E-2,4.708624E-3,3.7053353E-4,5.6227367E-2,-1.2842267E-2,4.7699958E-2,1.5533166E-2,5.522768E-2],"categories":[],"categories_nodes":[],"categories_segments":[],"categories_sizes":[],"default_left":[0,0,0,0,0,0,0,0,0,0,0,0,0,0,0,0,0,0,0,0,0,0,0,0,0,0,0,0,0,0,0,0,0,0,0],"id":32,"left_children":[1,3,5,7,9,11,13,15,17,19,-1,21,23,-1,-1,25,-1,27,-1,29,-1,31,33,-1,-1,-1,-1,-1,-1,-1,-1,-1,-1,-1,-1],"loss_changes":[2.6103522E2,5.2839584E1,3.9415405E1,1.1313751E1,1.3808884E1,1.7987366E1,2.0496264E0,3.0432434E0,3.778677E0,4.273052E0,0E0,4.063614E0,3.2565842E0,0E0,0E0,1.2999878E0,0E0,2.6083452E-1,0E0,1.3526382E0,0E0,1.0099064E1,1.6134644E-1,0E0,0E0,0E0,0E0,0E0,0E0,0E0,0E0,0E0,0E0,0E0,0E0],"parents":[2147483647,0,0,1,1,2,2,3,3,4,4,5,5,6,6,7,7,8,8,9,9,11,11,12,12,15,15,17,17,19,19,21,21,22,22],"right_children":[2,4,6,8,10,12,14,16,18,20,-1,22,24,-1,-1,26,-1,28,-1,30,-1,32,34,-1,-1,-1,-1,-1,-1,-1,-1,-1,-1,-1,-1],"split_conditions":[2.1646205E2,1.2905421E1,1.536651E1,1.6902177E2,1.3402448E1,5.5231358E1,2.1550807E2,2.556105E1,6.537983E0,5.39852E1,-2.543724E-2,8.119323E1,1.765752E-1,-2.8015802E-2,2.4874503E-2,7.839598E-1,2.362947E-2,9.073494E-1,5.441718E-2,2.2236528E1,-1.7238347E-2,5.4236674E-1,2.5316987E0,-2.6574358E-2,3.9035916E-2,-2.8831664E-2,6.0948515E-3,-1.842393E-2,4.708624E-3,3.7053353E-4,5.6227367E-2,-1.2842267E-2,4.7699958E-2,1.5533166E-2,5.522768E-2],"split_indices":[12,17,9,0,9,5,3,16,7,5,0,4,6,0,0,13,0,19,0,1,0,13,7,0,0,0,0,0,0,0,0,0,0,0,0],"split_type":[0,0,0,0,0,0,0,0,0,0,0,0,0,0,0,0,0,0,0,0,0,0,0,0,0,0,0,0,0,0,0,0,0,0,0],"sum_hessian":[6.9630585E2,4.560053E2,2.4030049E2,4.191659E2,3.683944E1,2.20208E2,2.0092505E1,4.1143106E2,7.7348094E0,2.9847988E1,6.991449E0,2.099561E2,1.0251899E1,1.8940617E1,1.1518873E0,4.094337E2,1.9973956E0,3.0971215E0,4.637688E0,2.8134407E1,1.7135823E0,3.8410023E1,1.7154607E2,8.891467E0,1.360431E0,4.0730984E2,2.1238418E0,2.095279E0,1.0018424E0,1.3295978E0,2.680481E1,8.217245E0,3.019278E1,1.5484614E0,1.699976E2],"tree_param":{"num_deleted":"0","num_feature":"23","num_nodes":"35","size_leaf_vector":"1"}},{"base_weights":[-1.138954E-2,5.102147E-1,-6.859256E-1,6.609345E-1,-5.890037E-1,-6.963776E-1,2.8796343E-2,6.944522E-1,-3.460247E-2,-6.900818E-1,2.0920339E-1,-1.3065453E-1,-7.11698E-1,7.130697E-1,-3.977808E-1,-3.6391355E-2,1.5989548E-2,3.1611796E-2,-3.8409296E-1,4.7166E-1,-3.2360155E-2,-4.7141892E-1,-7.254347E-1,3.606819E-2,-2.019601E-2,1.3265337E-2,-3.2787517E-2,-4.2623556E-3,-2.304884E-2,3.2946497E-2,-5.087258E-3,1.5339752E-2,-3.492467E-2,-3.6351554E-2,-6.0918857E-3],"categories":[],"categories_nodes":[],"categories_segments":[],"categories_sizes":[],"default_left":[0,0,0,0,0,0,0,0,0,0,0,0,0,0,0,0,0,0,0,0,0,0,0,0,0,0,0,0,0,0,0,0,0,0,0],"id":33,"left_children":[1,3,5,7,9,11,-1,13,-1,15,17,19,21,23,25,-1,-1,-1,27,29,-1,31,33,-1,-1,-1,-1,-1,-1,-1,-1,-1,-1,-1,-1],"loss_changes":[3.69877E2,9.859744E1,6.459961E0,2.4144577E1,5.9952106E0,3.7684326E0,0E0,1.0681152E1,0E0,2.7200336E0,2.4612663E0,4.4920387E0,1.0000153E0,4.970825E0,1.7688551E0,0E0,0E0,0E0,1.699686E-3,8.3961E-1,0E0,5.0596747E0,2.2799683E-1,0E0,0E0,0E0,0E0,0E0,0E0,0E0,0E0,0E0,0E0,0E0,0E0],"parents":[2147483647,0,0,1,1,2,2,3,3,4,4,5,5,7,7,9,9,10,10,11,11,12,12,13,13,14,14,18,18,19,19,21,21,22,22],"right_children":[2,4,6,8,10,12,-1,14,-1,16,18,20,22,24,26,-1,-1,-1,28,30,-1,32,34,-1,-1,-1,-1,-1,-1,-1,-1,-1,-1,-1,-1],"split_conditions":[5.7808046E0,9.632665E0,3.0111395E1,7.158406E1,2.3743979E1,8.475287E1,2.8796343E-2,1.8243711E0,-3.460247E-2,7.610117E1,5.5927273E1,3.357221E-1,5.0751686E0,1.10375375E-1,2.1050897E0,-3.6391355E-2,1.5989548E-2,3.1611796E-2,1.3769323E0,1.6482885E1,-3.2360155E-2,4.8276577E1,2.7146774E1,3.606819E-2,-2.019601E-2,1.3265337E-2,-3.2787517E-2,-4.2623556E-3,-2.304884E-2,3.2946497E-2,-5.087258E-3,1.5339752E-2,-3.492467E-2,-3.6351554E-2,-6.0918857E-3],"split_indices":[17,16,9,4,9,12,0,18,0,5,4,15,16,6,10,0,0,0,18,1,0,4,9,0,0,0,0,0,0,0,0,0,0,0,0],"split_type":[0,0,0,0,0,0,0,0,0,0,0,0,0,0,0,0,0,0,0,0,0,0,0,0,0,0,0,0,0,0,0,0,0,0,0],"sum_hessian":[1.0492175E3,5.9173615E2,4.5748148E2,5.2081415E2,7.092196E1,4.542463E2,3.2351506E0,5.087709E2,1.2043252E1,6.318189E1,7.740069E0,1.2400494E1,4.4184583E2,5.0067545E2,8.095456E0,6.127015E1,1.9117395E0,4.578454E0,3.161615E0,5.675713E0,6.7247806E0,2.6197905E1,4.1564792E2,4.974256E2,3.249866E0,2.1508372E0,5.9446187E0,1.3446052E0,1.8170097E0,4.2974434E0,1.3782697E0,5.7388067E0,2.0459099E1,4.1418237E2,1.4655521E0],"tree_param":{"num_deleted":"0","num_feature":"23","num_nodes":"35","size_leaf_vector":"1"}},{"base_weights":[9.17244E-4,-3.8820112E-1,3.0965123E-1,-5.4076153E-1,5.302968E-1,5.516323E-1,-4.6290866E-1,-5.9470505E-1,6.101892E-1,-1.9651875E-1,6.915718E-1,6.6875863E-1,-4.783581E-1,1.12926655E-1,-5.7767856E-1,-6.064922E-1,2.616847E-2,-1.8177688E-2,7.7175736E-1,-2.6983207E-2,3.3610225E-2,7.929216E-1,-3.4302586E-1,1.9216248E-1,7.808749E-1,3.8343316E-3,-5.9400654E-1,5.594802E-1,-4.9225098E-1,8.615211E-2,-6.319929E-1,-3.044564E-2,2.7494712E-4,8.963569E-3,4.1275423E-2,4.2146426E-2,-1.7394243E-2,-0E0,-2.3309005E-2,-2.4072839E-2,3.480382E-2,4.2138774E-2,-1.3061612E-2,3.0694932E-2,-2.4894295E-2,-1.0365746E-2,-3.0895015E-2,3.8133837E-2,-1.9170912E-2,-0E0,-2.8522182E-2,-2.4365118E-2,3.1489544E-2,-0E0,-3.2034766E-2],"categories":[],"categories_nodes":[],"categories_segments":[],"categories_sizes":[],"default_left":[0,0,0,0,0,0,0,0,0,0,0,0,0,0,0,0,0,0,0,0,0,0,0,0,0,0,0,0,0,0,0,0,0,0,0,0,0,0,0,0,0,0,0,0,0,0,0,0,0,0,0,0,0,0,0],"id":34,"left_children":[1,3,5,7,9,11,13,15,17,19,21,23,25,27,29,31,-1,-1,33,-1,-1,35,37,39,41,43,45,47,49,51,53,-1,-1,-1,-1,-1,-1,-1,-1,-1,-1,-1,-1,-1,-1,-1,-1,-1,-1,-1,-1,-1,-1,-1,-1],"loss_changes":[1.0837592E2,5.6197117E1,9.433442E1,2.1641335E1,6.8953323E0,4.663217E1,8.073015E0,4.6483383E0,2.8001509E0,3.6468937E0,5.2643223E0,1.8190445E1,2.2738695E0,5.8792424E0,3.7417374E0,5.4533386E-1,0E0,0E0,1.9489098E-1,0E0,0E0,2.8165035E0,2.248888E-1,2.3170748E1,1.826587E1,2.919423E0,8.666229E-2,2.7215624E0,3.7638974E-1,2.927668E0,5.573578E-1,0E0,0E0,0E0,0E0,0E0,0E0,0E0,0E0,0E0,0E0,0E0,0E0,0E0,0E0,0E0,0E0,0E0,0E0,0E0,0E0,0E0,0E0,0E0,0E0],"parents":[2147483647,0,0,1,1,2,2,3,3,4,4,5,5,6,6,7,7,8,8,9,9,10,10,11,11,12,12,13,13,14,14,15,15,18,18,21,21,22,22,23,23,24,24,25,25,26,26,27,27,28,28,29,29,30,30],"right_children":[2,4,6,8,10,12,14,16,18,20,22,24,26,28,30,32,-1,-1,34,-1,-1,36,38,40,42,44,46,48,50,52,54,-1,-1,-1,-1,-1,-1,-1,-1,-1,-1,-1,-1,-1,-1,-1,-1,-1,-1,-1,-1,-1,-1,-1,-1],"split_conditions":[4.8862E0,5.0149715E-1,1.3434819E1,7.1132976E-1,2.4509795E0,2.6792479E0,1.001665E0,4.6070614E0,1.2222266E1,2.53303E1,